tree
version=v4
num_class=1
num_tree_per_iteration=1
label_index=0
max_feature_idx=8
objective=regression
feature_names=Column_0 Column_1 Column_2 Column_3 Column_4 Column_5 Column_6 Column_7 Column_8
feature_infos=[0.05518186092376709:0.65986776351928711] [0.044068038463592529:0.37798398733139038] [0.0031461319886147976:0.008683803491294384] [0.38105285167694092:2.7102069854736328] -1:0:23:1:22:2:3:21:6:5:7:4:14:20:9:15:8:12:19:10:16:18:11:13 -1:23:52:51:22:50:53:54:49:57:48:56:55:58:24:25:59:46:60:70:44:47:61:43:65:67:62:45:63:64:68:28:69:26:30:42:34:37:27:31:35:41:66:32:33:39:40:29:36:71:38:72 [0.099834151566028595:0.27385184168815613] [0:20.722503662109375] [6.03125:1982.734375]
tree_sizes=2631 2731 2739 2746 2728 2752 2736 2751 2738 2757 2744 2748 2795 2760 2760 2776 2786 2812 2784 2770 2792 2771 2799 2769 2784 2775 2818 2805 2777 2792 2769 2805 2809 2821 2772 2815 2810 2812 2804 2782 2779 2804 2844 2788 2814 2790 2808 2804 2832 2825 2797 2819 2824 2799 2817 2848 2832 2863 2828 2856 2804 2840 2858 2844 2845 2813 2837 2811 2844 2804 2855 2873 2846 2811 2825 2831 2843 2847 2869 2853 2842 2809 2862 2830 2838 2837 2813 2846 2861 2840 2866 2851 2866 2802 2869 2837 2846 2818 2849 2849 2874 2847 2850 2860 2832 2871 2877 2895 2817 2870 2866 2819 2862 2876 2854 2828 2884 2861 2842 2864 2884 2853 2859 2868 2864 2874 2857 2866 2856 2887 2867 2860 2835 2864 2899 2886 2871 2852 2847 2812 2866 2831 2851 2886 2900 2890 2868 2870 2864 2898 2887 2878 2908 2900 2905 2843 2900 2852 2892 2898 2845 2870 2861 2888 2886 2868 2886 2915 2868 2876 2899 2916 2906 2903 2858 2838 2885 2857 2901 2874 2904 2907 2902 2889 2878 2894 2870 2889 2879 2892 2859 2899 2833 2900 2897 2874 2875 2868 2883 2881 2882 2924 2838 2874 2857 2871 2886 2886 2839 2889 2886 2894 2873 2862 2832 2847 2897 2903 2855 2866 2859 2860 2891 2873 2921 2844 2904 2863 2878 2843 2896 2853 2862 2874 2904 2881 2895 2882 2875 2903 2846 2893 2855 2898 2897 2866 2916 2903 2890 2891 2897 2870 2893 2888 2920 2889 2825 2903 2898 2892 2917 2864 2915 2888 2866 2918 2871 2856 2893 2920 2867 2882 2880 2875 2840 2894 2883 2902 2856 2900 2894 2872 2889 2894 2905 2859 2880 2888 2861 2906 2927 2883 2893 2901 2876 2894 2933 2855 2875 2913 2896 2922 2910 2924 2917 2889 2899 2893 2911 2926 2914 2872 2903 2897 2883 2912 2894 2906 2915 2869 2879 2904 2909 2896 2913 2892 2864 2844 2874 2887 2898 2856 2893 2910 2905 2879 2900 2867 2893 2911 2887 2902 2915 2896 2864 2913 2859 2907 2894 2865 2865 2894 2889 2930 2889 2883 2876 2909 2907 2879 2923 2879 2909 2942 2869 2890 2905 2925 2888 2878 2914 2917 2919 2902 2899 2858 2864 2933 2933 2901 2928 2915 2933 2895 2908 2914 2878 2902 2907 2876 2887 2918 2893 2895 2944 2894 2893 2931 2902 2893 2920 2914 2924 2877 2913 2926 2911 2941 2888 2940 2875 2930 2923 2916 2913 2930 2885 2897 2890 2891 2905 2878 2931 2870 2941 2941 2924 2934 2860 2912 2942 2935 2951 2875 2905 2913 2886 2902 2931 2910 2907 2917 2911 2902 2871 2912 2899 2909 2898 2886 2884 2918 2911 2919 2880 2919 2919 2900 2933 2890 2924 2929 2945 2883 2912 2855 2948 2894 2941 2918 2915 2920 2909 2947 2923 2937 2912 2890 2935 2924 2923 2900 2906 2927 2925 2916 2921 2901 2946 2903 2932 2928 2915 2921 2920 2930 2930 2926 2905 2969

Tree=0
num_leaves=31
num_cat=0
split_feature=0 8 0 0 8 6 1 6 0 8 0 2 6 0 8 8 0 2 8 0 8 3 2 8 2 0 8 2 0 0
split_gain=23079.5 2539.58 2278.57 1213.19 866.657 717.457 650.629 303.071 214.533 198.572 269.262 176.203 176.169 167.789 160.878 154.547 150.184 108.303 91.454 104.825 79.7109 82.0126 59.3505 58.6491 52.8932 49.267 48.1807 44.1831 41.9508 41.0131
threshold=0.39041152596473699 802.97656250000011 0.29094603657722479 0.48386856913566595 1022.7265625000001 0.22013950347900393 0.24930174648761752 0.13945195078849795 0.429321900010109 1455.1328125000002 0.45284649729728704 0.0058127532247453937 0.13721989095211032 0.57801657915115368 1344.2968750000002 1067.3359375000002 0.3408260196447373 0.0085013303905725496 1393.5859375000002 0.5159597396850587 701.81250000000011 0.48368592560291296 0.0051817412022501239 989.75781250000011 0.0048910423647612342 0.24669136106967929 53.687500000000007 0.0084134368225932139 0.52015286684036266 0.45578846335411077
decision_type=2 2 2 2 2 2 2 2 2 2 2 2 2 2 2 2 2 2 2 2 2 2 2 2 2 2 2 2 2 2
left_child=2 3 5 8 7 12 9 11 -2 10 -3 -4 26 28 22 17 27 25 19 -8 -7 -22 -6 -12 -18 -14 -1 -9 -5 -10
right_child=1 6 4 13 14 20 18 16 29 -11 23 -13 15 -15 -16 -17 24 -19 -20 -21 21 -23 -24 -25 -26 -27 -28 -29 -30 -31
leaf_value=307.08912325840822 307.02457104228796 306.89722511948867 306.95035099301214 306.88356475326191 306.98042896798165 307.20828687865401 306.80817409414584 307.17688401320407 306.97236819228812 306.7080613600744 306.83771071423587 307.08646534375094 307.23515281500255 306.74925675835573 306.8591804082206 307.09023374407803 307.16039512378131 307.16408321076949 306.67848790963541 306.71407646203232 307.33525379034558 307.27248121849516 307.06658217922319 306.78192810008773 307.0937241589553 307.19596336231575 307.1795306972798 307.10235606657284 306.83683658129337 306.93420632327621
leaf_weight=56 182 140 29 103 77 32 46 207 155 29 83 132 181 40 24 33 38 132 76 83 76 165 27 109 137 144 20 22 90 129
leaf_count=56 182 140 29 103 77 32 46 207 155 29 83 132 181 40 24 33 38 132 76 83 76 165 27 109 137 144 20 22 90 129
internal_value=307.03 306.872 307.16 306.936 307.093 307.216 306.793 307.12 306.982 306.834 306.844 307.062 307.184 306.842 306.976 307.195 307.143 307.202 306.722 306.748 307.282 307.292 307.003 306.806 307.108 307.218 307.113 307.17 306.862 306.955
internal_weight=0 1265 1532 699 693 839 566 565 466 361 332 161 566 233 128 490 404 457 205 129 273 241 104 192 175 325 76 229 193 284
internal_count=2797 1265 1532 699 693 839 566 565 466 361 332 161 566 233 128 490 404 457 205 129 273 241 104 192 175 325 76 229 193 284
is_linear=0
shrinkage=1


Tree=1
num_leaves=31
num_cat=0
split_feature=0 8 0 0 8 6 1 6 7 0 8 0 6 0 8 8 0 2 0 8 8 3 8 2 8 8 2 1 8 0
split_gain=20829.3 2291.97 2056.41 1094.91 782.158 647.505 587.193 275.064 223.404 193.616 179.212 243.009 158.993 151.429 145.192 140.479 137.471 93.4983 83.3108 81.6254 71.9391 74.0164 57.2648 53.5638 52.9808 47.0755 46.5084 43.7995 43.4831 40.2096
threshold=0.39041152596473699 802.97656250000011 0.29094603657722479 0.48386856913566595 1022.7265625000001 0.22013950347900393 0.24930174648761752 0.14073107391595843 0.11065177619457246 0.429321900010109 1455.1328125000002 0.45284649729728704 0.13721989095211032 0.57801657915115368 1344.2968750000002 1111.5390625000002 0.34469091892242437 0.0085013303905725496 0.52276253700256359 1531.2968750000002 701.81250000000011 0.48368592560291296 831.97656250000011 0.0051817412022501239 1010.8203125000001 882.25781250000011 0.0084134368225932139 0.23712949454784396 53.687500000000007 0.36193774640560156
decision_type=2 2 2 2 2 2 2 2 2 2 2 2 2 2 2 2 2 2 2 2 2 2 2 2 2 2 2 2 2 2
left_child=2 3 5 9 7 12 10 8 -4 -2 11 -3 28 -5 23 17 26 22 19 -8 -7 -22 -14 -6 -13 -20 -9 -18 -1 -10
right_child=1 6 4 13 14 20 18 16 29 -11 -12 24 15 -15 -16 -17 27 -19 25 -21 21 -23 -24 -25 -26 -27 -28 -29 -30 -31
leaf_value=0.056238613743335011 -0.0050859908675672597 -0.1260646181766476 -0.068715087976306682 -0.15974278938739411 -0.047020961046702676 0.16944405976682902 -0.23613401832459849 0.14213865146404359 0.082519381873367825 -0.071146083151032935 -0.30577017808782647 -0.18587005379352164 0.18759868979454042 -0.26663454622030258 -0.16220709448680282 0.04570283867533026 0.060353899564654603 0.12745056502295263 -0.25658120632171633 -0.33826962250929615 0.2900626308039615 0.23042867400429468 0.1355472418394956 0.034824588236019569 -0.23841161046709336 -0.34234564810991291 0.067155708437380585 0.13178025254836451 0.14212568603456019 0.026846301726376018
leaf_weight=56 182 140 40 193 77 32 79 205 100 284 29 94 265 40 24 27 123 132 20 26 76 165 66 27 98 80 23 26 20 48
leaf_count=56 182 140 40 193 77 32 79 205 100 284 29 94 265 40 24 27 123 132 20 26 76 165 66 27 98 80 23 26 20 48
internal_value=0 -0.150157 0.123987 -0.089595 0.0602474 0.176635 -0.224949 0.0855306 0.0361274 -0.0453458 -0.186572 -0.17616 0.146129 -0.178093 -0.0513541 0.156566 0.110167 0.163031 -0.292531 -0.261425 0.239882 0.249234 0.17722 -0.0257726 -0.212688 -0.325193 0.134575 0.0728176 0.0788405 0.0644632
internal_weight=0 1265 1532 699 693 839 566 565 188 466 361 332 566 233 128 490 377 463 205 105 273 241 331 104 192 100 228 149 76 148
internal_count=2797 1265 1532 699 693 839 566 565 188 466 361 332 566 233 128 490 377 463 205 105 273 241 331 104 192 100 228 149 76 148
is_linear=0
shrinkage=0.05


Tree=2
num_leaves=31
num_cat=0
split_feature=0 0 0 7 6 7 3 3 7 0 1 6 7 6 0 0 6 0 3 3 3 1 1 6 3 7 0 0 0 6
split_gain=18798.4 1982.2 1855.91 748.592 585.401 314.674 660.843 305.314 188.84 186.433 181.247 138.989 161.713 115.286 113.611 112.378 79.473 66.6291 58.6631 53.7766 80.6666 49.663 48.9423 45.758 80.693 42.6893 41.9349 40.5812 40.3126 38.5824
threshold=0.39041152596473699 0.48386856913566595 0.29094603657722479 0.42996250092983251 0.21812067925930026 0.083452668040990843 0.98480796813964855 1.6187885999679568 0.23176988959312442 0.3408260196447373 0.27293629944324499 0.13721989095211032 0.30779868364334112 0.1561662554740906 0.42107278108596807 0.57801657915115368 0.18590988963842395 0.45419472455978399 1.2388375997543337 0.62658071517944347 0.88920396566391002 0.19271101802587512 0.23030928522348407 0.26724968850612646 0.48368592560291296 6.815373659133912 0.50679272413253795 0.51296111941337597 0.31531782448291784 0.13857282698154452
decision_type=2 2 2 2 2 2 2 2 2 2 2 2 2 2 2 2 2 2 2 2 2 2 2 2 2 2 2 2 2 2
left_child=2 3 4 7 11 6 -4 17 10 -7 26 -1 -13 22 -5 27 28 18 -2 -14 -21 -20 -9 24 -6 -11 -3 -10 -8 -30
right_child=1 8 5 14 23 9 16 13 15 25 -12 12 19 -15 -16 -17 -18 -19 21 20 -22 -23 -24 -25 -26 -27 -28 -29 29 -31
leaf_value=0.074898449408723741 -0.13827955782180654 -0.19542334601898825 0.13789849842728025 0.014972583062198258 0.28132703990647284 0.11076418750528848 -0.0069949683248996739 -0.13112495541572572 -0.1138866927854869 0.031646567693718812 -0.30057406806668574 0.039156976080266762 0.23174850615588102 -0.3048674196004868 -0.050793745059191313 -0.26011661802019392 0.017837377513448396 -0.13630036142739385 -0.0018268022499978544 0.10454268950223922 0.16172710133968754 -0.085283010407555399 -0.20028877968297287 0.17816741910091669 0.21659774733393378 0.080672821681946519 -0.23427687232479727 -0.17321455546787809 -0.031473293545986374 -0.098476449006370148
leaf_weight=76 48 121 71 107 66 248 25 41 49 145 86 32 22 20 170 28 39 110 20 75 347 164 68 43 178 64 163 70 31 70
leaf_count=76 48 121 71 107 66 248 25 41 49 145 86 32 22 20 170 28 39 110 20 75 347 164 68 43 178 64 163 70 31 70
internal_value=0 -0.142649 0.117788 -0.0906142 0.167803 0.057235 0.0103498 -0.128973 -0.217933 0.0814471 -0.23698 0.137688 0.147713 -0.19452 -0.0253894 -0.169991 -0.0445348 -0.10425 -0.0890533 0.155537 0.151564 -0.0762117 -0.174273 0.225725 0.234106 0.0466594 -0.217723 -0.148785 -0.0638405 -0.0779111
internal_weight=0 1265 1532 748 839 693 236 471 517 457 370 552 476 129 277 147 165 342 232 444 422 184 109 287 244 209 284 119 126 101
internal_count=2797 1265 1532 748 839 693 236 471 517 457 370 552 476 129 277 147 165 342 232 444 422 184 109 287 244 209 284 119 126 101
is_linear=0
shrinkage=0.05


Tree=3
num_leaves=31
num_cat=0
split_feature=0 0 0 2 6 2 2 2 0 0 0 7 2 0 1 2 0 6 0 7 0 6 6 6 6 7 6 2 6 0
split_gain=16965.6 1788.94 1676.61 1063.5 614.865 458.076 356.515 230.644 196.847 162.291 162.147 159.341 182.384 108.02 85.6417 130.235 83.8584 69.157 67.3856 62.4384 50.7495 49.282 49.2406 46.0546 51.0986 43.1342 65.5925 60.5607 41.4506 40.5075
threshold=0.39041152596473699 0.48386856913566595 0.30520212650299078 0.0055930127855390319 0.22013950347900393 0.0046032981481403121 0.0054381277877837428 0.0046522831544280061 0.54800015687942516 0.34469091892242437 0.429321900010109 0.14025674760341647 0.0085098706185817736 0.52596122026443493 0.23350153118371966 0.0058957068249583253 0.24669136106967929 0.14112628996372226 0.429321900010109 0.2729813158512116 0.6052282750606538 0.12254706025123598 0.15040336549282077 0.25842265784740454 0.235978938639164 7.7563798427581796 0.20864624530076983 0.0054247006773948678 0.20108295232057574 0.45578846335411077
decision_type=2 2 2 2 2 2 2 2 2 2 2 2 2 2 2 2 2 2 2 2 2 2 2 2 2 2 2 2 2 2
left_child=2 3 4 7 11 -4 13 -2 -8 17 -5 28 16 21 15 -11 -13 19 -9 -7 -10 -3 -14 24 -6 26 27 -19 -1 -12
right_child=1 6 5 10 23 9 8 18 20 14 29 12 22 -15 -16 -17 -18 25 -20 -21 -22 -23 -24 -25 -26 -27 -28 -29 -30 -31
leaf_value=-0.0069413429126143457 -0.23931893811061766 -0.19261447869498155 -0.097799897592514756 -9.4981641847301624e-06 0.20637239331708238 -0.028346117734909061 -0.13862102188497455 -0.098383752838421018 -0.2044893902468394 -0.021782760098576548 -0.043725610336884352 0.17701536439083243 0.076624294880189403 -0.30040086228170515 0.10521440756948371 0.051705432045414591 0.13192889319521495 0.014808867406100035 -0.15504443901497245 0.077133696510436695 -0.28454160415209256 -0.25211549257409982 0.13616212581066375 0.1754200052273901 0.25493903133604262 0.15160422080602401 0.14751578748226166 0.096342819759362874 0.085986300744116312 -0.082360073850150151
leaf_weight=24 69 58 50 176 136 20 182 81 83 95 147 189 133 81 38 165 227 32 149 47 26 87 47 57 90 39 40 79 24 126
leaf_count=24 69 58 50 176 136 20 182 81 83 95 147 189 133 81 38 165 227 32 149 47 26 87 47 57 90 39 40 79 24 126
internal_value=0 -0.135516 0.111898 -0.0860834 0.154155 0.0471516 -0.207037 -0.159143 -0.170446 0.0602103 -0.0374314 0.127161 0.134219 -0.254151 0.0351013 0.024854 0.152413 0.089325 -0.13509 0.0456472 -0.223584 -0.228315 0.0921703 0.215583 0.225713 0.104727 0.0926199 0.0728375 0.0395225 -0.0615569
internal_weight=0 1265 1532 748 927 605 517 299 291 555 449 644 596 226 298 260 416 257 230 67 109 145 180 283 226 190 151 111 48 273
internal_count=2797 1265 1532 748 927 605 517 299 291 555 449 644 596 226 298 260 416 257 230 67 109 145 180 283 226 190 151 111 48 273
is_linear=0
shrinkage=0.05


Tree=4
num_leaves=31
num_cat=0
split_feature=0 8 0 0 8 6 1 6 8 0 0 2 8 6 0 8 0 8 0 8 8 3 8 8 2 2 8 3 2 0
split_gain=15311.4 1766.7 1514.73 788.443 597.462 478.297 444.954 220.904 151.818 187.934 140.639 130.488 120.285 119.295 115.451 105.78 98.4813 74.6033 77.5692 74.0617 52.821 67.4564 45.9951 43.5693 41.7582 39.6713 36.5468 35.5081 35.2227 33.8732
threshold=0.39041152596473699 802.97656250000011 0.29094603657722479 0.48386856913566595 1022.7265625000001 0.21812067925930026 0.24930174648761752 0.13945195078849795 1455.1328125000002 0.45284649729728704 0.429321900010109 0.0058127532247453937 1344.2968750000002 0.13721989095211032 0.57801657915115368 1111.5390625000002 0.3408260196447373 1473.3203125000002 0.57346281409263622 19.992187500000004 701.81250000000011 0.48368592560291296 831.97656250000011 989.75781250000011 0.0051817412022501239 0.0084845824167132395 53.687500000000007 0.7975415587425233 0.0048800325021147737 0.50679272413253795
decision_type=2 2 2 2 2 2 2 2 2 2 2 2 2 2 2 2 2 2 2 2 2 2 2 2 2 2 2 2 2 2
left_child=2 3 5 10 7 13 8 11 9 -3 -2 -4 24 26 -5 19 27 18 29 -15 -7 -22 25 -11 -6 -21 -1 -9 -18 -8
right_child=1 6 4 14 12 20 17 16 -10 23 -12 -13 -14 15 -16 -17 28 -19 -20 22 21 -23 -24 -25 -26 -27 -28 -29 -30 -31
leaf_value=0.045375001533622193 -0.003707699693616603 -0.10736086264252663 -0.07186396818222672 -0.1346451633788375 -0.041416937424861772 0.1432924760505557 -0.18318246101791211 0.17697690952391854 -0.27070901640530293 -0.15624342169388231 -0.060009329995258487 0.045269965383516991 -0.14683757790868793 0.08648666702210904 -0.22797878086566925 0.035495610764393441 0.10927114453580644 -0.30705468849259981 -0.30573547631502151 0.16507233175910821 0.25090972843923071 0.19468618454879891 0.10550202141728318 -0.20432279935670558 0.030848439327544636 0.12713591849681027 0.12411445207893848 0.10875716988677875 0.053777669459956594 -0.23780066281557086
leaf_weight=56 182 140 29 193 77 32 44 21 29 83 284 132 24 58 40 26 36 49 32 238 76 179 57 109 27 97 20 208 139 80
leaf_count=56 182 140 29 193 77 32 44 21 29 83 284 132 24 58 40 26 36 49 32 238 76 179 57 109 27 97 20 208 139 80
internal_value=0 -0.128741 0.106303 -0.0755696 0.0515991 0.151488 -0.194406 0.0736964 -0.160999 -0.151415 -0.0380203 0.0241713 -0.0459398 0.124267 -0.150668 0.133555 0.0934328 -0.253236 -0.236331 0.139221 0.203844 0.211443 0.147023 -0.183538 -0.0226557 0.154088 0.0660959 0.115013 0.0651935 -0.21842
internal_weight=0 1265 1532 699 693 839 566 565 361 332 466 161 128 552 233 476 404 205 156 450 287 255 392 192 104 335 76 229 175 124
internal_count=2797 1265 1532 699 693 839 566 565 361 332 466 161 128 552 233 476 404 205 156 450 287 255 392 192 104 335 76 229 175 124
is_linear=0
shrinkage=0.05


Tree=5
num_leaves=31
num_cat=0
split_feature=1 3 3 3 7 2 8 3 1 7 7 8 1 1 2 2 3 2 3 2 8 1 3 8 8 1 8 2 3 2
split_gain=10258.3 2731.94 1226.69 949.227 814.461 729.091 709.212 401.048 288.199 192.382 175.067 160.05 126.659 108.371 96.5954 95.1252 92.5409 126.918 85.3945 83.8768 81.1661 73.9756 70.0218 69.8397 65.8914 61.9903 59.3844 55.4357 49.605 48.0515
threshold=0.19442017376422885 1.4965212941169741 1.0069508552551272 0.73092421889305126 0.14025674760341647 0.0055930127855390319 802.97656250000011 0.91924297809600841 0.24481215327978137 1.2219542264938357 3.9718368053436284 1344.2968750000002 0.2513533234596253 0.16720594465732577 0.0075579707045108089 0.0085098706185817736 1.3295502662658694 0.0048800325021147737 0.863653063774109 0.0073874590452760467 1556.9218750000002 0.20839647948741916 1.1541151404380801 814.84375000000011 708.35937500000011 0.26977808773517614 1350.7578125000002 0.0085637103766202944 1.5951945781707766 0.0073696044273674497
decision_type=2 2 2 2 2 2 2 2 2 2 2 2 2 2 2 2 2 2 2 2 2 2 2 2 2 2 2 2 2 2
left_child=3 2 18 23 7 11 9 -5 21 14 -7 16 -11 15 28 -6 17 -4 -2 -12 25 -8 -19 24 -1 -10 -23 -15 -3 -14
right_child=1 6 5 4 13 10 8 -9 20 12 19 -13 29 27 -16 -17 -18 22 -20 -21 -22 26 -24 -25 -26 -27 -28 -29 -30 -31
leaf_value=0.15493323656550625 0.15783121958374979 -0.093630068935453892 -0.12451312421294658 0.14508244934129633 0.14369877679830967 -0.033900785089603494 -0.077435727540536653 -0.040171513631939888 -0.19731769418964784 -0.00074157292765448808 0.076003344528125752 -0.21946031195111573 -0.066439185201607895 0.09497331550739932 -0.22827647413526264 0.09369480386767147 -0.14261989828981 0.037846353180706505 0.078959983813802939 0.0038874826660113674 -0.30879232602960927 -0.15349093816840828 -0.064987126823362648 0.12812690162980878 0.21645753215188568 -0.25691239595413212 -0.24392039094652451 0.024293869057850494 -0.14008658584207298 -0.16718047618865969
leaf_weight=57 64 118 69 36 284 280 28 155 96 64 63 32 29 264 21 143 81 25 74 112 34 134 49 37 184 80 21 31 112 20
leaf_count=57 64 118 69 36 284 280 28 155 96 64 63 32 29 264 21 143 81 25 74 112 34 134 49 37 184 80 21 31 112 20
internal_value=0 -0.0824604 -0.0208821 0.111193 0.0865622 -0.0473603 -0.151522 -0.00525454 -0.198099 -0.101235 -0.00938156 -0.114862 -0.0470602 0.110852 -0.125625 0.126953 -0.0999189 -0.0757316 0.115538 0.0298492 -0.238069 -0.152231 -0.0302461 0.192087 0.201906 -0.224406 -0.165743 0.087546 -0.116252 -0.107558
internal_weight=0 1606 849 1191 913 711 757 191 393 364 455 256 113 722 251 427 224 143 138 175 210 183 74 278 241 176 155 295 230 49
internal_count=2797 1606 849 1191 913 711 757 191 393 364 455 256 113 722 251 427 224 143 138 175 210 183 74 278 241 176 155 295 230 49
is_linear=0
shrinkage=0.05


Tree=6
num_leaves=31
num_cat=0
split_feature=0 8 0 0 6 8 0 8 6 7 0 6 7 0 0 8 8 8 0 2 8 8 7 2 2 8 0 2 2 6
split_gain=12556.6 1449.26 1228.96 712.462 455.245 428.553 348.978 250.709 153.243 141.085 129.558 116.155 124.809 105.724 96.5627 91.8894 91.6684 83.0306 65.4048 61.9632 47.0593 39.1453 36.2866 35.1861 34.1981 32.1816 31.7059 30.5323 29.3158 29.6596
threshold=0.39041152596473699 831.97656250000011 0.30520212650299078 0.48386856913566595 0.22013950347900393 1022.7265625000001 0.50679272413253795 1531.2968750000002 0.14073107391595843 0.11065177619457246 0.4355445951223374 0.1393408998847008 0.37874808907508856 0.4521139413118363 0.57346281409263622 1344.2968750000002 19.992187500000004 1281.5078125000002 0.34469091892242437 0.00816916022449732 700.14062500000011 831.97656250000011 4.1074378490448007 0.0084845824167132395 0.0052148352842777976 697.87500000000011 0.56703478097915661 0.0086355502717196959 0.0055212103761732587 0.1235410012304783
decision_type=2 2 2 2 2 2 2 2 2 2 2 2 2 2 2 2 2 2 2 2 2 2 2 2 2 2 2 2 2 2
left_child=2 3 4 10 11 8 7 13 9 -4 22 19 -13 -3 25 24 -14 26 -10 -1 -6 23 -2 -18 -7 -5 -8 -21 29 -15
right_child=1 6 5 14 20 15 17 -9 18 -11 -12 12 16 28 -16 -17 21 -19 -20 27 -22 -23 -24 -25 -26 -27 -28 -29 -30 -31
leaf_value=0.11132542590300243 -0.018814963884998738 -0.10419068435551471 -0.062908317430599311 -0.11358854350371239 0.11674948483705522 -0.038438738960772753 -0.19781608088042146 -0.26842418581247335 0.10385828482222755 0.047298182369796216 -0.058751182640336602 0.048414048991565199 0.073133029725138493 -0.14777777161863115 -0.20458339919214663 -0.1343299973918044 0.15279488059052504 -0.28299023069319179 0.058224885985755287 0.010536966011252093 0.19136605501174928 0.10033122465247289 0.026741560472873974 0.11702863831269116 0.03514589983969927 -0.16200578605586835 -0.26227537989616395 0.079185258984565743 -0.10601987100782849 -0.19111824298833874
leaf_weight=42 161 146 37 156 23 75 93 40 166 135 255 56 67 81 46 23 249 61 149 46 260 64 60 95 20 44 24 25 21 77
leaf_count=42 161 146 37 156 23 75 93 40 166 135 255 56 67 81 46 23 249 61 149 46 260 64 60 95 20 44 24 25 21 77
internal_value=0 -0.116585 0.0962666 -0.0701734 0.132445 0.0408331 -0.178297 -0.150305 0.0615475 0.023591 -0.0344669 0.109217 0.119013 -0.135767 -0.139264 -0.0446574 0.127336 -0.235696 0.082273 0.0631858 0.185302 0.136237 -0.00644668 0.142918 -0.0229472 -0.12424 -0.211039 0.0347089 -0.161522 -0.168899
internal_weight=0 1265 1532 722 927 605 543 365 487 172 476 644 531 325 246 118 475 178 315 113 283 408 221 344 95 200 117 71 179 158
internal_count=2797 1265 1532 722 927 605 543 365 487 172 476 644 531 325 246 118 475 178 315 113 283 408 221 344 95 200 117 71 179 158
is_linear=0
shrinkage=0.05


Tree=7
num_leaves=31
num_cat=0
split_feature=0 0 0 2 2 3 2 0 2 0 0 0 3 7 1 2 3 3 2 2 0 0 3 0 0 1 7 7 2 2
split_gain=11332.3 1235.62 1120.5 712.487 366.634 299.072 250.725 182.532 161.37 138.477 115.414 74.7884 71.6374 99.2411 98.912 71.4226 68.7576 65.4824 102.083 59.6643 50.6654 40.9858 38.7529 37.8207 36.6936 30.4324 48.4647 25.1536 25.1007 23.4195
threshold=0.39041152596473699 0.48386856913566595 0.28057105839252477 0.0055930127855390319 0.0045780669897794732 0.67633959650993358 0.0054381277877837428 0.3408260196447373 0.0046522831544280061 0.54800015687942516 0.42107278108596807 0.52596122026443493 0.81673523783683788 0.083452668040990843 0.19682435691356662 0.0085098706185817736 1.1703456640243532 1.0119449496269228 0.0059267240576446065 0.0085637103766202944 0.429321900010109 0.45578846335411077 1.1269031763076784 0.22701338678598407 0.6052282750606538 0.10143952071666719 1.3891736268997195 4.7736868858337411 0.0046522831544280061 0.006375703029334546
decision_type=2 2 2 2 2 2 2 2 2 2 2 2 2 2 2 2 2 2 2 2 2 2 2 2 2 2 2 2 2 2
left_child=2 3 5 8 22 25 11 12 16 29 27 28 -6 14 -14 23 -2 -9 -19 -15 -10 -12 -4 -7 -11 -1 -27 -5 -3 -8
right_child=1 6 4 10 7 15 9 17 20 24 21 -13 13 19 -16 -17 -18 18 -20 -21 -22 -23 -24 -25 -26 26 -28 -29 -30 -31
leaf_value=0.14200405789182544 -0.11841079562902451 -0.23271400836797862 -0.045079465757214256 -0.0067106260492050263 0.14094341722401707 0.14806727714965057 -0.13498654986421268 0.079923777434636245 -0.077525112078881561 -0.16784225996718349 -0.03178149242480488 -0.24818943356290279 -0.028126388566479799 0.093054977158058647 0.10274614156647162 0.083755234029034495 -0.22842323938194586 -0.020868700921965151 0.043552420781980759 0.020848894922528418 -0.12665592937061451 -0.068796102194085954 -0.13435068710707129 0.11283928613537118 -0.23591173795553355 0.20173821880031895 0.14923470669215727 0.0387470665987995 -0.178484334089175 -0.098306299434466796
leaf_weight=47 20 26 31 94 44 116 72 55 81 83 184 81 42 270 22 153 49 97 168 32 149 126 20 222 26 151 62 45 119 110
leaf_count=47 20 26 31 94 44 116 72 55 81 83 184 81 42 270 22 153 49 97 168 32 149 126 20 222 26 151 62 45 119 110
internal_value=0 -0.110756 0.0914533 -0.0696731 0.0495218 0.13506 -0.170195 0.0585767 -0.129472 -0.13951 -0.0298514 -0.209706 0.0806649 0.0734183 0.016861 0.112099 -0.196536 0.0302761 0.0199719 0.085404 -0.109353 -0.0468261 -0.0800878 0.124929 -0.184079 0.17842 0.186456 0.00800589 -0.188208 -0.112817
internal_weight=0 1265 1532 748 781 751 517 730 299 291 449 226 410 366 64 491 69 320 265 302 230 310 51 338 109 260 213 139 145 182
internal_count=2797 1265 1532 748 781 751 517 730 299 291 449 226 410 366 64 491 69 320 265 302 230 310 51 338 109 260 213 139 145 182
is_linear=0
shrinkage=0.05


Tree=8
num_leaves=31
num_cat=0
split_feature=0 8 0 0 6 8 8 0 0 8 6 6 2 8 0 2 0 0 8 8 8 2 2 8 0 0 0 2 8 6
split_gain=10228.9 1188.2 1039.78 573.842 436.88 335.626 283.724 190.226 124.891 124.456 130.973 91.6064 102.477 85.3428 62.0743 61.6539 60.4432 60.2122 84.3386 51.2497 45.6585 43.1605 42.6157 41.2149 39.6012 38.8711 27.5523 31.6353 28.9648 27.4588
threshold=0.39225484430789953 831.97656250000011 0.31954321265220648 0.4953004270792008 0.22013950347900393 1126.8515625000002 1281.5078125000002 0.4953004270792008 0.44524355232715612 974.44531250000011 0.1393408998847008 0.13945195078849795 0.0058127532247453937 13.335937500000002 0.59652984142303478 0.0078743733465671557 0.429321900010109 0.50679272413253795 1666.4531250000002 966.19531250000011 1344.2968750000002 0.0048560467548668393 0.0047845090739429006 701.81250000000011 0.52596122026443493 0.41138185560703283 0.2666653990745545 0.0084845824167132395 810.46093750000011 0.235978938639164
decision_type=2 2 2 2 2 2 2 2 2 2 2 2 2 2 2 2 2 2 2 2 2 2 2 2 2 2 2 2 2 2
left_child=2 3 4 8 9 11 7 16 25 10 15 12 -4 -12 -5 -1 -3 18 -8 21 -7 -13 -11 -6 -9 -2 27 28 -15 -25
right_child=1 6 5 14 23 20 17 24 -10 22 13 19 -14 26 -16 -17 -18 -19 -20 -21 -22 -23 -24 29 -26 -27 -28 -29 -30 -31
leaf_value=0.11082167294290331 0.01395846017747767 -0.068918160518462016 -0.072453919425606736 -0.12291663333855041 0.11392754918488208 -0.045724814575241537 -0.16758086305816433 -0.16113037758817275 -0.062250689400926887 -0.026090885140001775 0.028105996043554377 0.11846657897296704 0.032814843341985943 0.14605602229719108 -0.20413014668005483 0.033019426833281573 -0.12594435177031596 -0.25727152277211673 -0.27544445196787515 0.014840807945718274 -0.13243107660250231 0.060621231279287827 0.057525135648029392 0.15939311695770481 -0.21291195690631867 -0.025739750430360694 0.10199568792131175 0.10498646536975034 0.096276270576885772 0.19226195231727933
leaf_weight=36 93 66 29 183 32 49 74 96 230 20 28 38 114 177 27 87 157 61 24 52 22 213 64 142 60 183 178 112 35 115
leaf_count=36 93 66 29 183 32 49 74 96 230 20 28 38 114 177 27 87 157 61 24 52 22 213 64 142 60 183 178 112 35 115
internal_value=0 -0.106065 0.0861993 -0.0638759 0.115335 0.0283781 -0.162212 -0.138694 -0.0350393 0.0949041 0.102273 0.0444518 0.0114666 0.113061 -0.133358 0.0557908 -0.109067 -0.218272 -0.193996 0.0600191 -0.0725915 0.0693787 0.0376166 0.167438 -0.181046 -0.0123632 0.117799 0.126482 0.137838 0.174101
internal_weight=0 1254 1543 716 1026 517 538 379 506 737 653 446 143 530 210 123 223 159 98 303 71 251 84 289 156 276 502 324 212 257
internal_count=2797 1254 1543 716 1026 517 538 379 506 737 653 446 143 530 210 123 223 159 98 303 71 251 84 289 156 276 502 324 212 257
is_linear=0
shrinkage=0.05


Tree=9
num_leaves=31
num_cat=0
split_feature=0 0 8 0 8 8 2 8 0 0 2 8 0 0 8 0 2 0 8 8 2 1 0 1 2 0 7 2 1 2
split_gain=9238.68 1185.57 977.458 403.643 366.038 236.913 228.36 279.528 187.38 88.7964 85.1509 70.1491 66.9279 57.9079 55.9007 51.8926 50.9835 46.4341 45.7524 40.9137 38.6257 34.4613 34.1438 33.3078 72.0973 33.2883 32.0623 31.3144 34.018 29.7304
threshold=0.40373067557811743 0.31954321265220648 802.97656250000011 0.49672217667102819 1126.8515625000002 1393.5859375000002 0.0048609005752950915 955.91406250000011 0.50958696007728588 0.36794373393058782 0.0085637103766202944 1062.1171875000002 0.45578846335411077 0.59652984142303478 1344.2968750000002 0.46973867714405065 0.0042813331820070752 0.24669136106967929 848.40625000000011 708.35937500000011 0.0048702610656619081 0.16126056015491488 0.57801657915115368 0.2144318372011185 0.0049781433772295722 0.22437246888875964 6.815373659133912 0.0056738494895398625 0.22500652074813846 0.006894404999911786
decision_type=2 2 2 2 2 2 2 2 2 2 2 2 2 2 2 2 2 2 2 2 2 2 2 2 2 2 2 2 2 2
left_child=1 6 3 12 9 8 7 19 15 18 11 17 29 -5 -6 -4 -7 -8 20 -1 -3 -12 -10 24 -20 -21 -22 28 -11 -2
right_child=2 4 5 13 14 16 10 -9 22 27 21 -13 -14 -15 -16 -17 -18 -19 23 25 26 -23 -24 -25 -26 -27 -28 -29 -30 -31
leaf_value=0.12411758657860555 -0.041730791771140203 0.1207407580954688 -0.098215845337250085 -0.11503404513711023 -0.046455328274322187 -0.29158066977625308 0.12335189703820099 -0.0047178023494780065 -0.17909915846373356 -0.055786049972859124 0.074018071904913135 0.035252944442972139 -0.064705209586836274 -0.19392363848509614 -0.13272771598505123 -0.14061083682945796 -0.20711218897253275 0.094215426319151405 -0.077159624621272085 0.18637187918027243 0.041208645514341009 0.016527398308052828 -0.2472322398966009 0.055201243260439403 0.04460430296190504 0.14613373179033579 0.082507862891011599 0.022444934654678849 0.027853905949741603 -0.0089980069627174468
leaf_weight=59 133 28 149 168 57 23 234 28 112 31 83 37 167 27 28 140 80 329 20 135 116 38 22 47 31 83 79 148 20 145
leaf_count=59 133 28 149 168 57 23 234 28 112 31 83 37 167 27 28 140 80 329 20 135 116 38 22 47 31 83 79 148 20 145
internal_value=0 0.0768336 -0.107475 -0.0659724 0.0213195 -0.157972 0.109568 0.145837 -0.141413 0.0370435 0.0942262 0.101943 -0.0396869 -0.125957 -0.0748745 -0.118753 -0.225974 0.106325 0.0533117 0.161055 0.0658254 0.0559631 -0.190285 0.0248367 -0.00314626 0.171052 0.0579401 0.0108018 -0.0229861 -0.0246579
internal_weight=0 1631 1166 640 605 526 1026 305 423 520 721 600 445 195 85 289 103 563 321 277 223 121 134 98 51 218 195 199 51 278
internal_count=2797 1631 1166 640 605 526 1026 305 423 520 721 600 445 195 85 289 103 563 321 277 223 121 134 98 51 218 195 199 51 278
is_linear=0
shrinkage=0.05


Tree=10
num_leaves=31
num_cat=1
split_feature=0 0 8 0 6 8 0 8 8 6 6 8 0 0 8 8 0 8 8 1 6 8 8 0 8 8 0 4 1 8
split_gain=8338.61 1132.65 881.88 424.285 391.347 290.836 157.816 120.077 116.65 103.616 78.0354 90.8682 77.3796 72.2146 72.1479 64.0518 62.1531 56.595 51.5532 44.9641 44.5103 43.989 43.0062 39.4301 29.7564 35.5311 28.7774 25.7913 25.7828 23.918
threshold=0.40641213953495031 0.32709743082523351 938.24218750000011 0.4953004270792008 0.21237077564001086 1126.8515625000002 0.52596122026443493 1531.2968750000002 833.71093750000011 0.1393408998847008 0.13945195078849795 831.97656250000011 0.46061879396438604 0.46973867714405065 11.890625000000002 157.75781250000003 0.57346281409263622 1370.1171875000002 814.84375000000011 0.17244733870029452 0.1246214658021927 998.16406250000011 713.19531250000011 0.20677431672811511 329.48437500000006 24.929687500000004 0.36936767399311071 0 0.23968296498060229 697.87500000000011
decision_type=2 2 2 2 2 2 2 2 2 2 2 2 2 2 2 2 2 2 2 2 2 2 2 2 2 2 2 9 2 2
left_child=1 4 3 12 8 10 7 13 9 15 11 -3 27 -4 -11 -1 29 -7 22 -10 -15 26 -6 -24 25 -16 -12 -2 -14 -5
right_child=2 5 6 16 18 17 -8 -9 19 14 21 -13 28 20 24 -17 -18 -19 -20 -21 -22 -23 23 -25 -26 -27 -28 -29 -30 -31
leaf_value=0.030324812764792066 -0.044336595104682269 0.020057163668808924 -0.10720034837117041 -0.097965971869416538 0.12378730548497958 -0.046538622480624459 -0.22549900405200912 -0.22857646375894547 0.063434281715646731 0.0091540019586682318 0.064691314387072318 -0.071641193445644943 -0.090220929883858741 -0.1344376945261205 0.083229138652483631 0.11118259773109898 -0.17135977435995031 -0.13922662151896434 0.10802433783194841 0.0061699274469885906 -0.18731290880176757 0.0022698218222050107 0.19473481848835947 0.14934151984062516 0.06909571420401335 0.119021700060655 0.029055091901682317 -0.013014078568872992 -0.05192427298074568 -0.13415066356390296
leaf_weight=95 139 149 123 128 78 58 81 40 86 20 174 33 85 89 90 33 54 23 73 57 72 51 80 119 48 302 84 171 91 71
leaf_count=95 139 149 123 128 78 58 81 40 86 20 174 33 85 89 90 33 54 23 73 57 72 51 80 119 48 302 84 171 91 71
internal_value=0 0.0718203 -0.103775 -0.0712765 0.101927 0.0149223 -0.163076 -0.14747 0.0811105 0.0909604 0.0294033 0.00343054 -0.0439415 -0.136046 0.102032 0.051171 -0.123786 -0.0728574 0.145405 0.0406086 -0.158084 0.0447012 0.155256 0.16759 0.106254 0.110804 0.0530888 -0.0289087 -0.0704198 -0.110876
internal_weight=0 1653 1144 739 1081 572 405 324 731 588 491 182 486 284 460 128 253 81 350 143 161 309 277 199 440 392 258 310 176 199
internal_count=2797 1653 1144 739 1081 572 405 324 731 588 491 182 486 284 460 128 253 81 350 143 161 309 277 199 440 392 258 310 176 199
cat_boundaries=0 1
cat_threshold=1
is_linear=0
shrinkage=0.05


Tree=11
num_leaves=31
num_cat=0
split_feature=0 0 3 8 8 8 2 0 0 0 2 2 0 0 8 8 8 2 2 0 1 3 1 0 2 8 8 3 7 0
split_gain=7536.69 1095.01 540.113 499.413 322.062 302.103 232.464 106.601 104.211 86.1508 85.6483 75.6681 70.4868 66.3863 42.3752 42.0618 41.297 38.7019 37.5954 44.1198 51.0728 36.7599 35.0626 32.8567 31.637 27.3316 24.9109 24.8181 23.9819 23.216
threshold=0.36794373393058782 0.46884548664093023 0.73092421889305126 1417.9765625000002 998.16406250000011 974.44531250000011 0.0057338972110301265 0.54800015687942516 0.27548104524612432 0.41138185560703283 0.0047845090739429006 0.0085013303905725496 0.40641213953495031 0.52276253700256359 814.84375000000011 713.19531250000011 1666.4531250000002 0.0062728396151214847 0.0085637103766202944 0.33019772171974188 0.18258716166019442 1.6223829984664919 0.22648686915636065 0.20677431672811511 0.005345668178051711 1350.7578125000002 1182.6171875000002 0.94110724329948436 12.371133327484133 0.59652984142303478
decision_type=2 2 2 2 2 2 2 2 2 2 2 2 2 2 2 2 2 2 2 2 2 2 2 2 2 2 2 2 2 2
left_child=2 3 14 6 7 8 12 17 11 -8 26 28 22 21 15 -1 -5 -3 19 -10 -21 -6 -2 -17 -12 -23 -7 -22 -4 -9
right_child=1 4 5 16 13 10 9 29 18 -11 24 -13 -14 -15 -16 23 -18 -19 -20 20 27 25 -24 -25 -26 -27 -28 -29 -30 -31
leaf_value=0.11718006384900854 -0.051582711784388217 -0.10771510965959 0.11779491539062609 -0.1493493850888877 -0.18155966766675313 -0.011109166593690004 0.018233026691725374 -0.13029047262829704 0.0794594931658857 -0.026390823961417727 0.019328178565313176 0.068994869882881171 -0.086544095306267402 -0.21315204831491036 0.090844357980264204 0.18499807491898537 -0.2380165313680967 -0.071712225361829404 0.014161990693231164 -0.025496380350419453 0.10208632774077929 -0.10919493703924595 0.016684940213767385 0.14304355622402259 0.089464931041002282 -0.17477585896849634 -0.072658301553418556 0.049273059311679676 0.064246804202380395 -0.18020419232985552
leaf_weight=79 68 137 230 29 75 35 180 74 261 271 82 160 172 83 37 80 24 164 38 21 26 47 26 112 20 24 31 154 23 34
leaf_count=79 68 137 230 29 75 35 180 74 261 271 82 160 172 83 37 80 24 164 38 21 26 47 26 112 20 24 31 154 23 34
internal_value=0 -0.0815302 0.0826248 -0.0413934 -0.129971 0.0659821 -0.0304454 -0.103389 0.0773205 -0.00858086 0.00436298 0.0959072 -0.0675165 -0.177447 0.141036 0.147889 -0.189501 -0.0880989 0.0619679 0.0659 0.0482929 -0.157149 -0.0327002 0.160525 0.0330805 -0.131363 -0.0400186 0.0569016 0.112927 -0.146004
internal_weight=0 1408 1389 770 638 1081 717 409 913 451 168 413 266 229 308 271 53 301 500 462 201 146 94 192 102 71 66 180 253 108
internal_count=2797 1408 1389 770 638 1081 717 409 913 451 168 413 266 229 308 271 53 301 500 462 201 146 94 192 102 71 66 180 253 108
is_linear=0
shrinkage=0.05


Tree=12
num_leaves=31
num_cat=1
split_feature=0 0 3 8 4 8 2 2 0 0 0 2 0 3 7 1 1 2 8 8 2 8 2 1 3 2 8 7 8 2
split_gain=6801.86 988.463 487.452 452.697 274.322 271.951 230.659 112.262 87.6935 83.2081 71.3639 62.0669 56.0257 55.4121 70.8203 46.5399 41.0697 38.9933 38.2436 37.9608 36.9755 36.952 34.4304 32.5496 30.31 28.3357 25.4241 22.9948 28.7428 22.4718
threshold=0.36794373393058782 0.47171552479267126 0.73092421889305126 1417.9765625000002 0 998.16406250000011 0.0057338972110301265 0.0046338322572410115 0.54800015687942516 0.41138185560703283 0.40852154791355139 0.0085800439119339007 0.52755016088485729 0.90990442037582409 0.083452668040990843 0.16720594465732577 0.19625556468963626 0.0049662212841212758 814.84375000000011 713.19531250000011 0.0077594192698597917 1666.4531250000002 0.006375703029334546 0.22648686915636065 0.45953896641731268 0.0044860756024718293 998.16406250000011 9.4442067146301287 902.79687500000011 0.0077594192698597917
decision_type=2 2 2 2 9 2 2 2 2 2 2 2 2 2 2 2 2 2 2 2 2 2 2 2 2 2 2 2 2 2
left_child=2 3 18 6 11 8 10 -6 22 -8 23 15 25 17 16 20 26 -9 19 -1 -4 -5 -3 -2 -21 -7 -15 28 -17 -24
right_child=1 5 4 21 7 12 9 13 -10 -11 -12 -13 -14 14 -16 27 -18 -19 -20 24 -22 -23 29 -25 -26 -27 -28 -29 -30 -31
leaf_value=0.11132106037362466 -0.049906728694766339 -0.10425363359617368 0.12907076469063758 -0.1434769605436633 -0.045930677964243778 -0.20485092536969618 0.017321375350131549 0.095052568880575047 -0.13870385068434257 -0.026072299005252056 -0.084958573344224339 0.048789840921759607 -0.20635885662502715 -0.061175542697310452 0.047414214931950256 0.088626623002566254 0.036318993856283753 0.020158264258255565 0.086302140032922914 0.18789078061995301 0.092349947367233037 -0.2261157145102819 -0.06124494126099566 0.014591073407791555 0.14134734379102107 -0.14331486907340588 -0.00059596583853627368 0.038561342450741096 0.02638760485819408 -0.11826543509960175
leaf_weight=79 71 131 100 31 43 22 180 63 108 286 184 100 72 29 199 159 44 24 37 46 218 24 127 27 146 125 43 38 21 20
leaf_count=79 71 131 100 31 43 22 180 63 108 286 184 100 72 29 199 159 44 24 37 46 218 24 127 27 146 125 43 38 21 20
internal_value=0 -0.0774537 0.0784935 -0.0410899 0.062683 -0.125718 -0.0309099 0.0301777 -0.100468 -0.00931079 -0.0666021 0.0836369 -0.170223 0.0390693 0.0293135 0.0916986 -0.00173863 0.0743921 0.133985 0.140495 0.103897 -0.179538 -0.0856138 -0.0321369 0.152498 -0.152524 -0.0249961 0.0739041 0.0813654 -0.0690028
internal_weight=0 1408 1389 803 1081 605 748 445 386 466 282 636 219 402 315 536 116 87 308 271 318 55 278 98 192 147 72 218 180 147
internal_count=2797 1408 1389 803 1081 605 748 445 386 466 282 636 219 402 315 536 116 87 308 271 318 55 278 98 192 147 72 218 180 147
cat_boundaries=0 1
cat_threshold=14680094
is_linear=0
shrinkage=0.05


Tree=13
num_leaves=31
num_cat=0
split_feature=0 0 3 8 8 8 2 0 0 2 0 2 0 0 2 0 3 7 8 8 8 3 8 2 2 3 8 8 0 2
split_gain=6139.23 876.069 448.672 403.87 262.628 255.449 198.84 89.5366 86.6503 77.1642 70.5407 61.3581 54.5644 47.6377 34.9382 45.2348 35.4236 64.0819 34.5149 35.5126 34.3337 32.9649 32.2518 30.8511 28.7377 26.1875 23.8693 23.7276 21.1837 17.7272
threshold=0.36936767399311071 0.46884548664093023 0.73092421889305126 1417.9765625000002 998.16406250000011 974.44531250000011 0.0057338972110301265 0.2666653990745545 0.54800015687942516 0.0047845090739429006 0.41138185560703283 0.0085098706185817736 0.52276253700256359 0.40641213953495031 0.0085637103766202944 0.33019772171974188 1.0069508552551272 0.11065177619457246 814.84375000000011 700.14062500000011 1609.3125000000002 1.6223829984664919 489.86718750000006 0.005345668178051711 0.0075691768433898696 0.45953896641731268 1350.7578125000002 1126.8515625000002 0.6052282750606538 0.0080480338074266928
decision_type=2 2 2 2 2 2 2 2 2 2 2 2 2 2 2 2 2 2 2 2 2 2 2 2 2 2 2 2 2 2
left_child=2 3 18 6 8 7 13 11 22 27 -8 -4 21 -2 15 29 -17 -18 19 -1 -5 -6 24 -11 -3 -21 -23 -7 -10 -9
right_child=1 4 5 20 12 9 10 14 28 23 -12 -13 -14 -15 -16 16 17 -19 -20 25 -22 26 -24 -25 -26 -27 -28 -29 -30 -31
leaf_value=0.074035416717600569 -0.032451884727383598 -0.045357909890707961 0.10409325796015592 -0.12501962988272958 -0.16493824529647827 -0.0035630756833901012 0.016816584791890795 0.079123051232321467 -0.11961546403815948 0.017027727670473867 -0.023767667735829723 0.062022967580570909 -0.19259426399885893 -0.078028468551319966 0.013898481754586101 0.08666952232251296 -0.036435927530484545 0.04637592964878319 0.081987032918511227 0.16463562258532349 -0.20621736089388532 -0.096686843877777151 -0.092251418163613527 0.084865747746967146 -0.10700815928479035 0.12869155822837419 -0.15797324664890766 -0.06238721394911409 -0.17211726331710817 0.049066528823647287
leaf_weight=23 86 89 233 23 75 30 177 235 83 83 271 138 83 172 44 37 28 141 37 71 30 47 188 21 24 177 24 40 25 62
leaf_count=23 86 89 233 23 75 30 177 235 83 83 271 138 83 172 44 37 28 141 37 71 30 47 188 21 24 177 24 40 25 62
internal_value=0 -0.0741653 0.0739879 -0.0378633 -0.117352 0.0589553 -0.0278701 0.0694837 -0.093348 0.00340863 -0.00773326 0.0884445 -0.160224 -0.0628363 0.0566237 0.0603611 0.0423571 0.0326556 0.127285 0.13347 -0.170981 -0.141822 -0.0795625 0.0307258 -0.0584518 0.138982 -0.117403 -0.0371769 -0.131769 0.0728486
internal_weight=0 1397 1400 759 638 1092 706 918 409 174 448 371 229 258 547 503 206 169 308 271 53 146 301 104 113 248 71 70 108 297
internal_count=2797 1397 1400 759 638 1092 706 918 409 174 448 371 229 258 547 503 206 169 308 271 53 146 301 104 113 248 71 70 108 297
is_linear=0
shrinkage=0.05


Tree=14
num_leaves=31
num_cat=0
split_feature=0 0 8 0 3 8 8 0 8 2 0 8 7 2 0 3 8 2 1 2 0 8 3 0 7 0 7 7 2 0
split_gain=5541.91 723.023 601.347 288.807 252.723 217.391 129.145 111.924 92.13 69.4822 51.6989 50.3143 48.4436 41.1728 40.4812 37.83 39.9397 37.6149 34.9042 38.1193 33.7571 30.2126 31.6445 29.2451 27.4469 25.0538 22.8373 28.8383 27.4786 22.5296
threshold=0.40373067557811743 0.32709743082523351 878.10937500000011 0.4953004270792008 0.67633959650993358 1215.8671875000002 1437.5234375000002 0.50958696007728588 955.91406250000011 0.0085013303905725496 0.45081685483455664 856.42968750000011 0.14025674760341647 0.0048702610656619081 0.24669136106967929 1.1856267452239992 10.937500000000002 0.0042813331820070752 0.2242916747927666 0.004944736137986184 0.59652984142303478 700.14062500000011 0.45953896641731268 0.57346281409263622 0.083452668040990843 0.429321900010109 9.4442067146301287 6.9960737228393564 0.0048702610656619081 0.36081159114837652
decision_type=2 2 2 2 2 2 2 2 2 2 2 2 2 2 2 2 2 2 2 2 2 2 2 2 2 2 2 2 2 2
left_child=1 4 3 10 21 11 7 25 9 14 -2 13 -10 -3 -6 16 -11 -8 19 -13 -5 -1 -23 -9 -15 -4 27 28 -16 -26
right_child=2 5 6 20 8 -7 17 23 12 15 -12 18 -14 24 26 -17 -18 -19 -20 -21 -22 22 -24 -25 29 -27 -28 -29 -30 -31
leaf_value=0.070333646156865617 -0.017452511458849813 0.091893196851015102 -0.062313949846559108 -0.092998499057721354 0.10592012668141362 -0.081476154283366423 -0.23735560230586841 -0.14192257034389869 -0.0027301225439465096 -0.0067811366880223866 -0.050639171876634165 -0.061082289039212118 0.06681784796306775 -0.017722649364892779 0.10270489255587262 -0.014503455702215435 0.066612936462028122 -0.16295602055696343 0.033066912179812794 0.0042554561256502683 -0.15152795229639326 0.15899300082870152 0.11910584781193333 -0.20197865871282727 0.048421605100813218 -0.1034955650179204 0.043402931251701839 0.099175155359506606 0.056141354833808978 0.020411991571577696
leaf_weight=23 266 28 45 205 165 55 23 92 62 21 210 34 42 29 42 20 158 65 50 65 28 69 178 26 133 206 47 125 129 156
leaf_count=23 266 28 45 205 165 55 23 92 62 21 210 34 42 29 42 20 158 65 50 65 28 69 178 26 133 206 47 125 129 156
internal_value=0 0.0594993 -0.0832486 -0.0544204 0.0832451 0.0128279 -0.127973 -0.114993 0.0692959 0.0757594 -0.0320937 0.0233062 0.0253566 0.033767 0.0855699 0.0507154 0.0580025 -0.182401 -0.000985554 -0.0181838 -0.100032 0.125145 0.130248 -0.155155 0.028649 -0.0961124 0.0757804 0.0809214 0.067578 0.0333022
internal_weight=0 1631 1166 709 1081 550 457 369 811 707 476 495 104 346 508 199 179 88 149 99 233 270 247 118 318 251 343 296 171 289
internal_count=2797 1631 1166 709 1081 550 457 369 811 707 476 495 104 346 508 199 179 88 149 99 233 270 247 118 318 251 343 296 171 289
is_linear=0
shrinkage=0.05


Tree=15
num_leaves=31
num_cat=1
split_feature=3 1 8 8 3 6 8 4 7 6 1 6 8 7 1 6 6 7 8 8 1 1 6 1 6 8 8 8 3 1
split_gain=3722.91 1028.17 486.741 455.927 299.317 208.681 154.75 144.323 143.632 106.923 101.112 99.6607 89.5956 87.7407 79.7535 63.9257 58.0262 57.5939 56.957 40.8641 40.2217 38.1691 35.8248 35.3393 31.6538 27.7377 27.2062 32.1081 36.5471 25.3472
threshold=1.4257104992866518 0.17985843867063525 682.91406250000011 1003.3046875000001 1.0221053361892702 0.21237077564001086 1437.5234375000002 0 0.11065177619457246 0.13945195078849795 0.23030928522348407 0.14321104437112811 831.97656250000011 7.2597041130065927 0.24779192358255389 0.1393408998847008 0.13066431879997256 7.4201390743255624 1151.1250000000002 157.75781250000003 0.26977808773517614 0.21941764652729037 0.20279248803853991 0.26848661899566656 0.11737683415412904 24.929687500000004 891.66406250000011 710.75781250000011 0.48368592560291296 0.21243433654308322
decision_type=2 2 2 2 2 2 2 9 2 2 2 2 2 2 2 2 2 2 2 2 2 2 2 2 2 2 2 2 2 2
left_child=1 5 7 4 22 8 10 16 -1 12 24 29 -6 21 -9 19 23 -17 -13 -10 -12 -11 -3 -2 -4 -19 27 -7 -29 -5
right_child=2 3 6 11 9 26 -8 14 15 13 20 18 -14 -15 -16 17 -18 25 -20 -21 -22 -23 -24 -25 -26 -27 -28 28 -30 -31
leaf_value=-0.022313296553329566 -0.071603585388611557 0.051534301246504627 -0.099177344484875599 -0.089483318163900441 -0.0062957928295114211 0.091312375825185046 -0.16967179894447326 0.021121490887026858 0.019279551344463627 0.029617355699281631 -0.10417820947082009 -0.004138179599750237 -0.08471303721484931 0.081274546462076686 -0.0517815353196453 0.054619236274639951 -0.043784497430161731 0.065380228895885059 -0.069597223992395693 0.085787832271307707 -0.14694325780868531 -0.012422961133098839 0.095669300014322459 -0.13054610201290676 -0.050378157342439167 0.099598870296939854 0.060998258641920988 0.16820282001121373 0.11857069281532484 -0.15622878098487855
leaf_weight=44 93 79 48 33 175 65 90 118 83 116 206 61 46 54 55 159 182 78 73 32 75 101 110 35 108 246 20 51 136 25
leaf_count=44 93 79 48 33 175 65 90 118 83 116 206 61 46 54 55 159 182 78 73 32 75 101 110 35 108 246 20 51 136 25
internal_value=0 0.043359 -0.0767386 0.00455246 0.0237386 0.0804248 -0.109968 -0.0404817 0.0648739 0.00319341 -0.0976723 -0.0634984 -0.0226179 0.0242425 -0.00194343 0.0712891 -0.0599907 0.0792659 -0.0397987 0.0377862 -0.115592 0.0100502 0.0772213 -0.0877207 -0.0653933 0.091361 0.11713 0.121584 0.132107 -0.118253
internal_weight=0 1787 1010 873 681 914 527 483 642 492 437 192 221 271 173 598 310 483 134 115 281 217 189 128 156 324 272 252 187 58
internal_count=2797 1787 1010 873 681 914 527 483 642 492 437 192 221 271 173 598 310 483 134 115 281 217 189 128 156 324 272 252 187 58
cat_boundaries=0 1
cat_threshold=103
is_linear=0
shrinkage=0.05


Tree=16
num_leaves=31
num_cat=0
split_feature=0 0 6 2 7 2 2 0 6 6 7 0 2 2 0 6 6 2 2 6 0 6 6 2 0 2 7 2 0 1
split_gain=4553.38 662.755 359.517 315.695 256.678 142.394 87.4877 85.0543 82.9897 66.8067 128.74 59.5994 57.1594 52.3749 49.1718 37.5752 36.6405 33.9267 33.019 27.0752 25.8484 23.83 27.4904 21.7602 21.7973 18.5548 17.7952 16.8222 20.9962 16.2312
threshold=0.36936767399311071 0.47171552479267126 0.21237077564001086 0.0055930127855390319 0.14025674760341647 0.0054381277877837428 0.0047179555986076602 0.52015286684036266 0.18590988963842395 0.1393408998847008 7.4201390743255624 0.42107278108596807 0.0043469714000821122 0.0081380186602473276 0.55241578817367565 0.17374780029058459 0.17520210146903994 0.0084845824167132395 0.0086355502717196959 0.1246214658021927 0.6052282750606538 0.22860056906938556 0.25842265784740454 0.0085966438055038469 0.32709743082523351 0.0062728396151214847 4.9867022037506112 0.004944736137986184 0.31954321265220648 0.16279150545597079
decision_type=2 2 2 2 2 2 2 2 2 2 2 2 2 2 2 2 2 2 2 2 2 2 2 2 2 2 2 2 2 2
left_child=2 3 4 6 8 12 16 25 27 13 23 26 -3 29 19 -8 -2 -12 -15 -14 -9 -4 -23 24 -11 -7 -5 28 -1 -6
right_child=1 5 21 11 9 7 15 20 -10 10 17 -13 14 18 -16 -17 -18 -19 -20 -21 -22 22 -24 -25 -26 -27 -28 -29 -30 -31
leaf_value=-0.009228521949844434 -0.13531383519293741 -0.20824607719074595 0.087676872009591719 -0.00017867089204844975 0.098164922520518311 -0.078993082025521244 -0.064296419676005231 -0.099955637219236865 0.041516474264884196 0.055853539736061879 0.097929313351473632 -0.025029696372398769 -0.097702536672087656 -0.016156507876970001 -0.17538281511037779 -0.0013008144028760771 -0.062870849542863053 0.066470508077496979 0.052407414615154274 -0.1347638200121847 -0.15443199231074409 0.12364130293329556 0.084618297295045053 -0.0081188116036355496 0.025253199077709471 -0.0463765263244246 0.029245439512490097 -0.007949667555444382 -0.066609605452553788 0.04774129828202385
leaf_weight=25 64 22 124 147 20 71 192 134 62 180 241 259 112 59 39 27 24 133 25 88 26 192 59 20 86 113 79 51 44 79
leaf_count=25 64 22 124 147 20 71 192 134 62 180 241 259 112 59 39 27 24 133 25 88 26 192 59 20 86 113 79 51 44 79
internal_value=0 -0.063872 0.0637193 -0.0337722 0.0483936 -0.103275 -0.0734496 -0.0821463 -0.00545575 0.0600194 0.0674312 -0.00865684 -0.131124 0.0332886 -0.124024 -0.0565298 -0.115557 0.0867421 0.00424942 -0.11401 -0.108808 0.105609 0.114469 0.0421784 0.0459602 -0.0589623 0.0101067 -0.0297247 -0.0458194 0.0579279
internal_weight=0 1397 1400 792 1025 605 307 344 182 843 660 485 261 183 239 219 88 374 84 200 160 375 251 286 266 184 226 120 69 99
internal_count=2797 1397 1400 792 1025 605 307 344 182 843 660 485 261 183 239 219 88 374 84 200 160 375 251 286 266 184 226 120 69 99
is_linear=0
shrinkage=0.05


Tree=17
num_leaves=31
num_cat=1
split_feature=0 0 2 0 6 2 0 7 2 6 7 5 2 0 6 0 2 6 0 0 2 0 2 1 7 2 6 6 6 7
split_gain=4120.16 556.296 383.671 239.248 199.576 118.228 101.733 101.54 82.3133 62.9588 59.673 47.7073 44.8422 40.85 38.1708 33.5895 31.3974 27.0553 25.2825 25.1281 24.4337 22.9111 20.6863 19.6732 19.4146 19.2414 15.2204 14.8919 24.0153 16.0367
threshold=0.40641213953495031 0.32709743082523351 0.0055930127855390319 0.50841429829597484 0.21237077564001086 0.004520589718595148 0.50679272413253795 0.14025674760341647 0.0047179555986076602 0.1393408998847008 7.4201390743255624 0 0.0080480338074266928 0.45578846335411077 0.12450063973665239 0.59652984142303478 0.0084845824167132395 0.13156421482563022 0.57346281409263622 0.36193774640560156 0.0086512332782149332 0.44631913304328924 0.0057589982170611629 0.18600815534591678 0.11971271783113481 0.0085800439119339007 0.14655438065528872 0.22903653234243396 0.25842265784740454 2.6514123678207402
decision_type=2 2 2 2 2 2 2 2 2 2 2 9 2 2 2 2 2 2 2 2 2 2 2 2 2 2 2 2 2 2
left_child=1 4 6 13 7 -3 8 -1 14 12 25 22 -9 -4 -2 -5 -12 18 -8 23 -14 -10 -7 -13 -23 -11 -18 -6 29 -29
right_child=2 5 3 15 27 11 17 9 21 10 16 19 20 -15 -16 -17 26 -19 -20 -21 -22 24 -24 -25 -26 -27 -28 28 -30 -31
leaf_value=-0.0019540867344267779 -0.068496006946079435 -0.06718957165877025 -0.014190452429186554 -0.084969324781090622 0.087490694776915762 -0.035438069139014587 -0.11837611879717123 0.071316393164710876 -0.053008074662935591 0.053693273448455286 0.094827170083611204 -0.00060769959042469672 -0.0059518561890674025 -0.044301436603432748 -0.14634782997639598 -0.13940124085971289 0.031681378404931008 -0.1799506845012788 -0.17704835750839928 0.012663919434917518 0.057481618523597726 -0.079116606494182187 0.010273265936929319 0.043075114551962161 -0.13164539098739625 0.0040487543933770877 0.072687885581145015 0.12373801732872741 0.08133189436375049 0.076282131224870695
leaf_weight=67 20 45 250 149 111 55 111 45 81 173 209 30 63 205 74 35 29 31 22 214 20 146 45 183 20 22 103 162 57 20
leaf_count=67 20 45 250 149 111 55 111 45 81 173 209 30 63 205 74 35 29 31 22 214 20 146 45 183 20 22 103 162 57 20
internal_value=0 0.0504769 -0.072954 -0.0472126 0.0715764 0.0106019 -0.105526 0.0567106 -0.0899626 0.0626301 0.0701539 0.0172444 0.0311242 -0.0277569 -0.129784 -0.0953232 0.0827698 -0.137886 -0.128081 0.0241982 0.00933332 -0.074808 -0.0135163 0.0369226 -0.0854454 0.0480924 0.0636789 0.102625 0.109653 0.118523
internal_weight=0 1653 1144 639 1081 572 505 731 341 664 536 527 128 455 94 184 341 164 133 427 83 247 100 213 166 195 132 350 239 182
internal_count=2797 1653 1144 639 1081 572 505 731 341 664 536 527 128 455 94 184 341 164 133 427 83 247 100 213 166 195 132 350 239 182
cat_boundaries=0 2
cat_threshold=0 2151219200
is_linear=0
shrinkage=0.05


Tree=18
num_leaves=31
num_cat=1
split_feature=3 1 8 8 3 3 8 4 2 6 2 1 6 1 7 6 2 2 8 1 8 2 8 8 7 6 7 3 6 3
split_gain=2762.05 755.568 368.754 335.821 222.503 156.431 125.301 112.957 99.0949 82.4436 82.3904 77.7289 75.5789 69.0221 65.9378 48.5788 47.8418 45.8447 42.0357 41.8993 41.1647 38.7955 36.2768 30.9178 32.8427 26.761 23.555 21.4132 21.3623 21.152
threshold=1.4257104992866518 0.17985843867063525 682.91406250000011 1003.3046875000001 1.0279363393783572 0.62658071517944347 1437.5234375000002 0 0.0076993361581116923 0.14026171714067462 0.0056157340295612821 0.20839647948741916 0.13909993320703509 0.20890748500823977 0.18701133877038958 0.15296377986669543 0.0075579707045108089 0.0078743733465671557 1151.1250000000002 0.26977808773517614 1062.1171875000002 0.0042813331820070752 14.453125000000002 713.19531250000011 1.4821409583091738 0.20279248803853991 4.0669376850128183 1.3074974417686465 0.14693113416433337 1.4965212941169741
decision_type=2 2 2 2 2 2 2 9 2 2 2 2 2 2 2 2 2 2 2 2 2 2 2 2 2 2 2 2 2 2
left_child=1 5 7 4 25 23 11 16 -9 14 15 -4 -5 -12 -7 -6 29 -16 -14 -13 22 -8 -11 -1 -25 -3 -15 28 -24 -2
right_child=2 3 6 12 10 9 21 8 -10 20 13 19 18 26 17 -17 -18 -19 -20 -21 -22 -23 27 24 -26 -27 -28 -29 -30 -31
leaf_value=0.079672732163296164 -0.02786289122261067 0.044070276988204572 -0.034402224929363005 -0.10512643941449669 -0.070017931393601671 -0.057289894062670925 -0.20477328015410384 0.015292732414494895 -0.090601753500791693 0.013314444313828762 0.033188168876446211 -0.084446393855989496 -0.0047524613387409662 -0.0210141473767263 0.077041754494712233 0.015237089316360653 -0.11706056749379193 0.015652757540838905 -0.059986853208637947 -0.1262999610900879 0.021369765430648367 -0.1295103965632951 0.051612410602834204 0.13535446807742121 0.083918468024995599 0.081933528637247427 0.012980043794398747 0.10086804849561304 0.076987990630867406 -0.056964715620670181
leaf_weight=74 93 80 67 53 55 21 23 147 26 26 195 295 63 132 48 24 27 83 76 75 46 67 116 100 45 112 83 64 291 190
leaf_count=74 93 80 67 53 55 21 23 147 26 26 195 295 63 132 48 24 27 83 76 75 46 67 116 100 45 112 83 64 291 190
internal_value=0 0.0373469 -0.0660979 0.00408012 0.0205463 0.0691214 -0.0950211 -0.0345399 -0.000588054 0.0575099 0.00263778 -0.0839568 -0.0543235 0.0116468 0.0249612 -0.0441177 -0.0517974 0.0381464 -0.0349526 -0.0929302 0.0666212 -0.148744 0.0708094 0.105971 0.119392 0.0661572 -0.00789081 0.0739832 0.0697556 -0.0474012
internal_weight=0 1787 1010 873 681 914 527 483 173 695 489 437 192 410 152 79 310 131 139 370 543 90 497 219 145 192 215 471 407 283
internal_count=2797 1787 1010 873 681 914 527 483 173 695 489 437 192 410 152 79 310 131 139 370 543 90 497 219 145 192 215 471 407 283
cat_boundaries=0 1
cat_threshold=199
is_linear=0
shrinkage=0.05


Tree=19
num_leaves=31
num_cat=0
split_feature=0 0 2 0 6 2 0 7 2 6 3 2 3 7 0 6 0 3 6 0 0 3 3 0 7 3 7 2 6 2
split_gain=3384.62 448.739 314.58 199.94 162.978 95.0414 86.7222 82.0119 69.8981 51.8096 53.1722 38.0318 36.1747 80.9423 34.0964 34.091 28.1502 27.3422 23.6646 22.0217 21.5246 20.939 20.4946 20.2604 17.422 16.461 15.9129 21.9522 34.2119 15.1237
threshold=0.40641213953495031 0.32709743082523351 0.0055930127855390319 0.50841429829597484 0.21237077564001086 0.004520589718595148 0.50679272413253795 0.14025674760341647 0.0047179555986076602 0.1393408998847008 0.91924297809600841 0.00816916022449732 0.99059066176414501 0.083452668040990843 0.45081685483455664 0.12450063973665239 0.59652984142303478 1.0767103433609011 0.13156421482563022 0.57346281409263622 0.36081159114837652 0.88920396566391002 1.1875611543655398 0.44631913304328924 0.11971271783113481 1.1302639842033388 7.6192450523376474 0.007652492495253683 0.14693113416433337 0.008590014651417734
decision_type=2 2 2 2 2 2 2 2 2 2 2 2 2 2 2 2 2 2 2 2 2 2 2 2 2 2 2 2 2 2
left_child=1 4 6 14 7 25 8 -1 15 11 29 -9 -7 -14 -4 -2 -5 -13 19 -8 -15 -6 -17 -10 -25 -3 -12 -28 -29 -11
right_child=2 5 3 16 21 12 18 9 23 10 26 17 13 20 -16 22 -18 -19 -20 -21 -22 -23 -24 24 -26 -27 27 28 -30 -31
leaf_value=-0.0014560237234986541 -0.060021932683885094 -0.031523128924891355 -0.011310196537750113 -0.077316002840263742 0.096000954247042775 0.049642341509731354 -0.10726585933217057 0.060427335994142406 -0.046781327597291013 0.042257859730502459 0.056672229640042551 0.047789308309555058 -0.022401957742279779 0.039218832093569703 -0.038684922078697892 -0.099869007989764225 -0.12714616945811683 -0.016252271901816131 -0.164834031943352 -0.16202392740683125 0.013218764141937228 0.046644470225209782 -0.15412504376600619 -0.071289343296307817 -0.12104948461055756 -0.09213937024275462 0.10236120465872944 0.046587787177818626 0.085950890507387079 -0.0021657983735203744
leaf_weight=67 20 24 227 149 327 69 111 53 81 82 130 25 131 137 228 28 35 50 31 22 190 23 46 146 20 21 69 92 138 25
leaf_count=67 20 24 227 149 327 69 111 53 81 82 130 25 131 137 228 28 35 50 31 22 190 23 46 146 20 21 69 92 138 25
internal_value=0 0.04575 -0.0661221 -0.0428134 0.0647002 0.00993659 -0.0956157 0.0512665 -0.0812465 0.0565864 0.0634116 0.028006 0.0158922 0.0108076 -0.0250276 -0.117942 -0.0867946 0.00509492 -0.125493 -0.116324 0.0241118 0.0927575 -0.133596 -0.0672815 -0.0772845 -0.0598107 0.0712765 0.0776262 0.0702056 0.0318785
internal_weight=0 1653 1144 639 1081 572 505 731 341 664 536 128 527 458 455 94 184 75 164 133 327 350 74 247 166 45 429 299 230 107
internal_count=2797 1653 1144 639 1081 572 505 731 341 664 536 128 527 458 455 94 184 75 164 133 327 350 74 247 166 45 429 299 230 107
is_linear=0
shrinkage=0.05


Tree=20
num_leaves=31
num_cat=2
split_feature=3 1 8 8 6 3 8 4 2 2 6 1 6 2 4 3 2 2 2 8 2 8 1 8 8 3 1 2 1 3
split_gain=2254.66 615.378 304.375 275.767 184.383 129.309 106.087 96.3738 88.7155 84.0052 68.3041 65.1737 62.9953 61.0691 50.038 49.1095 40.3532 39.0963 37.7574 34.7664 34.3014 33.9661 33.8132 29.8366 28.0131 25.2481 24.9597 20.0969 18.1473 17.9901
threshold=1.4257104992866518 0.17985843867063525 682.91406250000011 1003.3046875000001 0.13945195078849795 0.62658071517944347 1437.5234375000002 0 0.0076993361581116923 0.0049044240731745967 0.14026171714067462 0.20839647948741916 0.14321104437112811 0.0054550601635128268 1 1.2933630943298342 0.0070227158721536407 0.0070227158721536407 0.0075579707045108089 1151.1250000000002 0.0042813331820070752 1062.1171875000002 0.26977808773517614 14.453125000000002 713.19531250000011 0.48368592560291296 0.21840721368789676 0.0058773618657141933 0.21941764652729037 1.3074974417686465
decision_type=2 2 2 2 2 2 2 9 2 2 2 2 2 2 9 2 2 2 2 2 2 2 2 2 2 2 2 2 2 2
left_child=1 5 7 4 13 24 11 18 -9 -6 15 -4 28 -3 -11 16 -7 27 -2 -14 -8 23 -13 -12 -1 -26 -16 -15 -5 -25
right_child=2 3 6 12 9 10 20 8 -10 14 21 22 19 17 26 -17 -18 -19 -20 -21 -22 -23 -24 29 25 -27 -28 -29 -30 -31
leaf_value=0.070889047260169646 -0.043114033888271841 -0.069465549726118445 -0.030439492879407622 -0.07244637545051151 0.072240056583016618 -0.057648154574891801 -0.18811328126036603 0.015289934538186015 -0.084905414627148568 0.050820374822487004 0.011816703657118175 -0.076411192757353752 -0.0025010355515405537 -0.0087001407454753744 0.024319244554908439 0.058415947152815506 0.018556193472214148 -0.02491094217979286 -0.10499781050063946 -0.053642843909918858 -0.11734382494616864 0.019049736165502314 -0.11400987700621289 0.062962360538030851 0.1378997847741964 0.093790012861912464 -0.0085710594216583391 0.045417673582033746 -0.13128782331943512 0.091479804739356047
leaf_weight=74 283 47 67 38 122 23 23 147 26 105 26 295 61 29 128 58 71 103 27 73 67 46 75 407 49 96 105 42 20 64
leaf_count=74 283 47 67 38 122 23 23 147 26 105 26 295 61 29 128 58 71 103 27 73 67 46 75 407 49 96 105 42 20 64
internal_value=0 0.0337427 -0.0597191 0.00372034 0.0186418 0.0624183 -0.0859965 -0.0310479 0.000219014 0.0366751 0.0518613 -0.0758158 -0.0492042 -0.0188935 0.023838 0.0222349 -8.95513e-05 -0.00523327 -0.0469882 -0.0303619 -0.135429 0.0601545 -0.0840325 0.063959 0.0959211 0.108696 0.00910659 0.0233132 -0.0927365 0.0668373
internal_weight=0 1787 1010 873 681 914 527 483 173 460 695 437 192 221 338 152 94 174 310 134 90 543 370 497 219 145 233 71 58 471
internal_count=2797 1787 1010 873 681 914 527 483 173 460 695 437 192 221 338 152 94 174 310 134 90 543 370 497 219 145 233 71 58 471
cat_boundaries=0 1 2
cat_threshold=103 16252928
is_linear=0
shrinkage=0.05


Tree=21
num_leaves=31
num_cat=0
split_feature=0 0 0 2 2 0 3 2 2 0 3 7 1 2 2 0 0 3 2 7 7 7 1 7 7 3 3 2 3 0
split_gain=2783.61 363.787 265.203 170.128 102.226 73.7826 68.1259 60.6588 56.0428 30.1781 26.0156 39.3216 51.3599 29.0988 23.8084 21.5246 20.6822 20.1373 48.0472 18.2015 22.4879 17.9175 19.8659 15.2511 18.1681 14.7008 14.1879 12.7283 12.4223 12.397
threshold=0.40641213953495031 0.27548104524612432 0.4953004270792008 0.0055930127855390319 0.004520589718595148 0.35807675123214727 0.67633959650993358 0.0059405686333775529 0.0047179555986076602 0.52596122026443493 0.81673523783683788 0.11971271783113481 0.19820589572191241 0.0083794137462973612 0.0084845824167132395 0.45081685483455664 0.57801657915115368 1.0119449496269228 0.0051817412022501239 6.575486660003663 9.2988982200622576 2.6514123678207402 0.10143952071666719 6.3277645111083993 12.371133327484133 0.4099001288414002 1.1302639842033388 0.0048010442405939111 0.91924297809600841 0.44631913304328924
decision_type=2 2 2 2 2 2 2 2 2 2 2 2 2 2 2 2 2 2 2 2 2 2 2 2 2 2 2 2 2 2
left_child=1 6 3 8 26 10 21 9 -2 27 -6 12 -12 19 23 -5 -9 -7 -19 -13 -21 22 25 28 -25 -1 -3 -4 -8 -10
right_child=2 4 7 15 5 17 14 16 29 -11 11 13 -14 -15 -16 -17 -18 18 -20 20 -22 -23 -24 24 -26 -27 -28 -29 -30 -31
leaf_value=0.09414946151816328 -0.10542344671003977 -0.022761304362211379 -0.11842145566429413 -0.010094365144893631 0.067614066639337042 0.047772953605565889 0.060398738630906203 -0.060904181504769152 -0.041311298791365129 -0.1276552096301434 -0.019633309898846266 0.035681368467813945 0.044211658715669601 0.0083877113042399292 0.042569133328894782 -0.032936670911552578 -0.10092011799172658 -0.035988146919900411 0.012889669117358355 0.07301576995499888 0.029987919513686474 0.05719968323644839 0.10226477596389001 0.079659918851838152 0.032259782460396701 0.038209701515734197 -0.073617396639504784 -0.083802954527464779 0.019013073559850456 -0.066422362816333777
leaf_weight=23 82 32 35 227 58 26 66 152 81 102 72 178 56 60 180 189 41 65 222 98 44 38 172 167 23 24 24 110 25 125
leaf_count=23 82 32 35 227 58 26 66 152 81 102 72 178 56 60 180 189 41 65 222 98 44 38 172 167 23 24 24 110 25 125
internal_value=0 0.0414988 -0.0599556 -0.0409236 0.020944 0.025117 0.0682658 -0.090407 -0.0704644 -0.106817 0.0358895 0.0322674 0.00829886 0.0403409 0.0567663 -0.0204722 -0.069405 0.00563698 0.00181978 0.0463322 0.0596832 0.0888934 0.0943927 0.0658606 0.073922 0.0655845 -0.0445568 -0.0921591 0.0490291 -0.0565486
internal_weight=0 1653 1144 704 935 879 718 440 288 247 566 508 128 380 461 416 193 313 287 320 142 257 219 281 190 47 56 145 91 206
internal_count=2797 1653 1144 704 935 879 718 440 288 247 566 508 128 380 461 416 193 313 287 320 142 257 219 281 190 47 56 145 91 206
is_linear=0
shrinkage=0.05


Tree=22
num_leaves=31
num_cat=1
split_feature=3 1 8 8 3 6 7 8 6 7 2 1 5 8 6 2 1 2 6 8 8 6 8 3 6 6 6 2 2 1
split_gain=1840.33 500.949 250.44 227.842 137.75 107.174 91.6498 90.833 85.9023 74.7553 85.5208 54.8984 49.6082 47.9505 38.0496 30.1853 26.9611 26.3825 25.6627 24.6608 24.0899 24.0557 22.7105 31.9131 21.4465 23.7537 19.5821 19.1122 32.4402 17.5795
threshold=1.4257104992866518 0.17985843867063525 695.38281250000011 944.89843750000011 1.0279363393783572 0.21812067925930026 0.11065177619457246 1437.5234375000002 0.14321104437112811 1.0929666161537173 0.0076993361581116923 0.20839647948741916 0 1151.1250000000002 0.13692941516637805 0.0042813331820070752 0.26977808773517614 0.0075579707045108089 0.13945195078849795 382.19531250000006 14.453125000000002 0.13637781888246539 701.81250000000011 0.48368592560291296 0.13643527776002887 0.13128490000963214 0.15372056514024737 0.0056157340295612821 0.0070227158721536407 0.21627980470657351
decision_type=2 2 2 2 2 2 2 2 2 2 2 2 9 2 2 2 2 2 2 2 2 2 2 2 2 2 2 2 2 2
left_child=1 5 9 4 -3 6 26 11 -5 17 19 -4 21 -10 24 -9 -13 -2 27 -11 -16 -6 -7 -24 25 -8 -1 -14 -29 -20
right_child=2 3 7 8 12 22 14 15 13 10 -12 16 18 -15 20 -17 -18 -19 29 -21 -22 -23 23 -25 -26 -27 -28 28 -30 -31
leaf_value=-0.05034636932056552 -0.040312051711099826 0.056437117695324335 -0.026895969682164601 -0.083635922715271996 -0.0092868673210234742 0.045938958367332819 0.0062966779325947624 -0.17313602864742281 0.0060517909802082518 0.027490174656817586 -0.079760885704308754 -0.069282108534741968 -0.049092176855646825 -0.04848352220827995 0.0094918122013600975 -0.10674836266396651 -0.10308256690969338 -0.09852487118471237 0.022119402793245486 -0.010763869938091376 0.05882700722425227 0.048499937700977304 0.11989479263623555 0.077768031454889489 -0.022153017568317328 0.068322914992940839 0.010710230848655619 0.021742911140757559 -0.03114726700144492 -0.0080711400946305006
leaf_weight=24 266 177 67 73 23 32 33 23 90 89 32 291 41 73 26 67 74 21 99 80 512 83 66 141 22 29 29 49 71 94
leaf_count=24 266 177 67 73 23 32 33 23 90 89 32 291 41 73 26 67 74 21 99 80 512 83 66 141 22 29 29 49 71 94
internal_value=0 0.0304937 -0.0539449 0.00340608 0.0189538 0.0563662 0.0461782 -0.0780182 -0.0385596 -0.0281944 -0.00481011 -0.0684982 0.00453087 -0.018372 0.0515563 -0.123714 -0.0761348 -0.0445715 -0.00474643 0.00938175 0.0564428 0.0328612 0.0851397 0.0911998 0.0202594 0.035309 -0.016938 -0.0196201 -0.00955044 0.0074152
internal_weight=0 1787 1010 873 637 914 675 522 236 488 201 432 460 163 622 90 365 287 354 169 538 106 239 207 84 62 53 161 120 193
internal_count=2797 1787 1010 873 637 914 675 522 236 488 201 432 460 163 622 90 365 287 354 169 538 106 239 207 84 62 53 161 120 193
cat_boundaries=0 2
cat_threshold=62914560 20971520
is_linear=0
shrinkage=0.05


Tree=23
num_leaves=31
num_cat=0
split_feature=0 0 8 0 8 0 3 0 8 2 8 7 0 2 7 1 8 1 0 8 7 8 2 2 3 2 0 7 2 8
split_gain=2288.87 296.212 265.822 130.643 125.086 56.7763 56.0479 53.9718 53.8267 22.8008 22.654 23.6613 22.6373 21.8911 21.3618 31.3953 21.1543 20.9231 18.2322 17.6151 18.7945 17.1836 16.8663 16.6734 16.504 16.0113 15.499 15.1504 12.0602 12.0343
threshold=0.40641213953495031 0.27548104524612432 938.24218750000011 0.48630544543266302 1215.8671875000002 0.51296111941337597 0.62658071517944347 0.3408260196447373 1666.4531250000002 0.0085637103766202944 713.19531250000011 1.4821409583091738 0.54800015687942516 0.0084845824167132395 6.815373659133912 0.23350153118371966 852.46093750000011 0.15958720445632937 0.44524355232715612 949.85156250000011 0.30779868364334112 1417.9765625000002 0.0048910423647612342 0.007652492495253683 0.4099001288414002 0.0043469714000821122 0.56703478097915661 12.371133327484133 0.006894404999911786 1455.1328125000002
decision_type=2 2 2 2 2 2 2 2 2 2 2 2 2 2 2 2 2 2 2 2 2 2 2 2 2 2 2 2 2 2
left_child=1 6 3 18 7 8 10 9 25 17 24 -12 -5 16 15 22 27 -3 28 -19 -21 -6 -9 -16 -1 -4 29 -8 -2 -7
right_child=2 4 5 12 21 26 13 14 -10 -11 11 -13 -14 -15 23 -17 -18 19 -20 20 -22 -23 -24 -25 -26 -27 -28 -29 -30 -31
leaf_value=0.089457633577544118 -0.020983758415095508 -0.0087304941955066856 -0.11129061728715897 -0.052080178232790791 -0.028772403422743082 -0.097081096127237143 0.070602249558520527 -0.032525432006352481 -0.14974030662666668 -0.00334736615362944 0.10574898519510523 0.062653675973415382 -0.081088303584816335 0.038340833808502395 0.051685098696123956 0.041036807518038489 0.033369684254087636 0.047251568242375343 -0.029460791795129851 -0.00455109460178662 0.050920210606776754 -0.082669054220120108 0.0040704801692629687 0.0058133470651227986 0.041492807209253947 -0.064734095663867924 -0.14968150670711811 0.028006744643916254 0.0024833656265400351 -0.14067181885242461
leaf_weight=29 110 21 20 184 50 76 226 36 22 33 109 45 106 180 52 54 59 322 230 37 26 21 251 32 47 241 26 23 109 20
leaf_count=29 110 21 20 184 50 76 226 36 22 33 109 45 106 180 52 54 59 322 230 37 26 21 251 32 47 241 26 23 109 20
internal_value=0 0.0376306 -0.0543671 -0.0365245 0.0190829 -0.0869243 0.061784 0.0243254 -0.0746326 0.0366213 0.0821326 0.0931562 -0.0626831 0.0521935 0.0116245 0.00606089 0.0602892 0.0398699 -0.0196292 0.0425209 0.0183418 -0.0447137 -0.000519948 0.0342101 0.0597952 -0.0683016 -0.115437 0.0666677 -0.00930377 -0.106162
internal_weight=0 1653 1144 739 935 405 718 864 283 439 230 154 290 488 425 341 308 406 449 385 63 71 287 84 76 261 122 249 219 96
internal_count=2797 1653 1144 739 935 405 718 864 283 439 230 154 290 488 425 341 308 406 449 385 63 71 287 84 76 261 122 249 219 96
is_linear=0
shrinkage=0.05


Tree=24
num_leaves=31
num_cat=0
split_feature=0 0 8 0 6 8 2 0 6 8 8 6 2 7 0 2 2 6 0 6 0 8 8 6 8 8 7 2 6 7
split_gain=2065.7 268.953 239.904 117.905 105.133 74.7068 57.0944 51.3244 47.7964 44.9915 29.5429 23.1765 36.8087 26.3571 21.2693 20.0167 25.8299 19.4273 19.2821 26.1546 16.4545 15.8139 20.4259 15.2634 13.1023 12.9801 11.7597 23.2117 34.8277 11.6936
threshold=0.40641213953495031 0.33019772171974188 938.24218750000011 0.48630544543266302 0.21237077564001086 1215.8671875000002 0.0052291033789515504 0.52276253700256359 0.13667423278093341 1666.4531250000002 11.890625000000002 0.13945195078849795 0.0051817412022501239 7.3966910839080819 0.57801657915115368 0.0080480338074266928 0.0086355502717196959 0.19649760425090793 0.46973867714405065 0.1246214658021927 0.44524355232715612 700.14062500000011 814.84375000000011 0.19842981547117236 1370.1171875000002 597.35937500000011 7.4201390743255624 0.007652492495253683 0.1466542333364487 2.6514123678207402
decision_type=2 2 2 2 2 2 2 2 2 2 2 2 2 2 2 2 2 2 2 2 2 2 2 2 2 2 2 2 2 2
left_child=1 4 3 20 6 11 23 9 15 18 -10 12 -3 17 25 -8 -17 -13 -4 -20 -2 -6 29 -1 -7 -5 -12 -28 -29 -23
right_child=2 5 7 14 21 24 8 -9 10 -11 26 13 -14 -15 -16 16 -18 -19 19 -21 -22 22 -24 -25 -26 -27 27 28 -30 -31
leaf_value=-0.0050379342507329526 -0.0088385856313818057 -0.064664392732083797 -0.054204477159030463 -0.041745561664188358 0.032354570601297462 -0.028089242691502855 0.045757875738270358 -0.11660780499464479 -0.0085606495407409972 -0.1422532856464386 0.041741233574473027 0.0082768240116099061 0.0071603392753185656 0.056689157110193504 -0.089953248202800762 -0.024647773059339011 0.038996556669473652 0.040660861372016376 -0.061006784619936763 -0.10140638545155525 -0.027987752194318961 0.085772945552998706 0.052282982915639875 0.037233862190924845 -0.077610043664886205 -0.064908370335503091 0.082438838863984135 0.027871581425890326 0.064461267116649817 0.052055724838684349
leaf_weight=81 219 20 135 119 23 34 33 87 20 22 153 203 165 46 48 44 25 60 86 75 230 227 75 29 22 123 78 100 186 29
leaf_count=81 219 20 135 119 23 34 33 87 20 22 153 203 165 46 48 44 25 60 86 75 230 227 75 29 22 123 78 100 186 29
internal_value=0 0.0357491 -0.0516487 -0.0346983 0.0499909 0.00718775 0.0393785 -0.0825781 0.0451061 -0.073268 0.0510659 0.0133921 -0.000604497 0.021772 -0.059549 0.0137296 -0.00158823 0.0156648 -0.0681408 -0.0798265 -0.0186477 0.0724448 0.0752305 0.00610645 -0.0475438 -0.0535184 0.0533725 0.0582615 0.0516677 0.0819534
internal_weight=0 1653 1144 739 1103 550 749 405 639 318 537 494 185 309 290 102 69 263 296 161 449 354 331 110 56 242 517 364 286 256
internal_count=2797 1653 1144 739 1103 550 749 405 639 318 537 494 185 309 290 102 69 263 296 161 449 354 331 110 56 242 517 364 286 256
is_linear=0
shrinkage=0.05


Tree=25
num_leaves=31
num_cat=0
split_feature=0 0 8 0 8 6 3 6 0 8 7 6 6 6 2 8 8 6 0 8 3 2 8 0 8 6 3 2 0 0
split_gain=1864.3 244.656 216.513 106.637 102.162 62.1141 58.3364 47.4872 47.1539 44.9828 38.7198 41.175 31.3033 25.5893 25.5791 24.8425 34.964 25.2503 22.3602 17.8595 19.8292 15.8549 19.6093 15.2819 14.4424 14.4365 14.1803 14.0575 13.4776 13.4742
threshold=0.40641213953495031 0.27548104524612432 938.24218750000011 0.49777847528457647 1215.8671875000002 0.14073107391595843 1.3048599958419802 0.21812067925930026 0.51296111941337597 1609.3125000000002 7.4201390743255624 0.20279248803853991 0.13066431879997256 0.13128490000963214 0.0062931168358773002 831.97656250000011 189.22656250000003 0.14706175029277804 0.46061879396438604 700.14062500000011 0.45953896641731268 0.0052291033789515504 554.78125000000011 0.59652984142303478 1417.9765625000002 0.18620728701353076 0.90990442037582409 0.0065853064879775056 0.56703478097915661 0.46973867714405065
decision_type=2 2 2 2 2 2 2 2 2 2 2 2 2 2 2 2 2 2 2 2 2 2 2 2 2 2 2 2 2 2
left_child=1 7 3 18 5 6 -3 13 9 29 11 21 14 -1 -8 16 17 -15 27 -9 -21 25 26 -5 -6 -7 -23 -2 -10 -4
right_child=2 4 8 23 24 10 12 19 28 -11 -12 -13 -14 15 -16 -17 -18 -19 -20 20 -22 22 -24 -25 -26 -27 -28 -29 -30 -31
leaf_value=0.0022838989452969648 -0.02427728581496922 -0.028230076130347871 -0.049282770929497115 -0.055437036405612788 -0.025935281448066234 -0.011505623091278332 -0.044152021709958029 0.030736841974051105 -0.095785044645890605 -0.12740501910448074 0.058759490207192448 0.055202201051819749 0.033504262294145375 0.03252144518516982 0.020213356298027618 0.016971819081272072 0.087181298274260299 0.061200598094785841 -0.033329588458117551 0.10019495119199609 0.068007887772864192 -0.021683761353294057 0.04868872104796456 -0.092098827343998546 -0.07534626385285742 0.020606343574472705 0.022149486714471624 -0.0026518729601086085 -0.13636704178956838 -0.072271325306538195
leaf_weight=31 128 99 129 205 50 70 29 23 96 28 105 92 126 154 33 52 65 153 191 66 174 21 67 33 21 70 152 182 26 126
leaf_count=31 128 99 129 205 50 70 29 23 96 28 105 92 126 154 33 52 65 153 191 66 174 21 67 33 21 70 152 182 26 126
internal_value=0 0.0339616 -0.0490663 -0.0329634 0.0171051 0.0218429 0.00283412 0.0559127 -0.0784492 -0.0672474 0.0312979 0.0251889 0.0191924 0.0461365 -0.00989303 0.0493427 0.0538677 0.0468143 -0.0198724 0.0728258 0.0768593 0.0179225 0.0257229 -0.0605204 -0.0405498 0.00455036 0.0168287 -0.0115811 -0.104434 -0.0606418
internal_weight=0 1653 1144 739 935 864 287 718 405 283 577 472 188 455 62 424 372 307 501 263 240 380 240 238 71 140 173 310 122 255
internal_count=2797 1653 1144 739 935 864 287 718 405 283 577 472 188 455 62 424 372 307 501 263 240 380 240 238 71 140 173 310 122 255
is_linear=0
shrinkage=0.05


Tree=26
num_leaves=31
num_cat=1
split_feature=1 8 6 6 4 7 8 8 6 6 7 2 6 1 2 2 6 1 2 2 6 6 2 8 2 2 6 7 6 2
split_gain=1217.61 353.046 209.124 181.447 149.808 100.203 79.2062 62.9431 47.9647 43.1778 38.5677 31.3446 31.311 28.339 27.3604 23.894 39.9961 21.0188 20.1631 18.6953 18.4911 25.7687 18.0673 16.4492 15.5598 15.0458 16.552 15.0187 14.2924 14.0273
threshold=0.19702862203121188 1054.4453125000002 0.18620728701353076 0.14167694002389911 0 0.11065177619457246 933.07031250000011 1437.5234375000002 0.12932926416397098 0.21237077564001086 7.4201390743255624 0.005345668178051711 0.15480414777994159 0.26848661899566656 0.0078053472097963103 0.0078053472097963103 0.14321104437112811 0.15958720445632937 0.0042813331820070752 0.0084322304464876669 0.13388109207153323 0.13857282698154452 0.0052148352842777976 701.81250000000011 0.0086355502717196959 0.0069645431358367213 0.16690330952405932 7.3377418518066415 0.14655438065528872 0.0060958636458963164
decision_type=2 2 2 2 9 2 2 2 2 2 2 2 2 2 2 2 2 2 2 2 2 2 2 2 2 2 2 2 2 2
left_child=3 2 4 5 8 20 9 12 13 10 -5 -8 22 29 17 27 -17 -7 -9 -12 -1 -22 -3 -11 -16 26 -10 -6 -21 -2
right_child=1 7 -4 6 15 14 11 18 25 23 19 -13 -14 -15 24 16 -18 -19 -20 28 21 -23 -24 -25 -26 -27 -28 -29 -30 -31
leaf_value=-0.063598160259425648 -0.049609807289066568 -0.060783164404471471 0.04614608866758034 0.026074361998116836 0.0061712689089328939 0.080612907528877259 -0.00087307324651086221 -0.14033220441176975 -0.03294253519910214 0.035561660118401055 0.066238686051430171 0.056473098334766207 -0.031771728585099246 -0.077394355552783914 -0.0067424360819935032 -0.062037368529829488 0.017892827309996768 0.028725521926757661 -0.090750876562669877 0.0078339218050241469 0.024944157508157552 -0.04375474597745313 -0.094932796382436568 0.073576154625079521 0.037993686388318355 -0.0080856202106983615 0.0095636145099997523 0.033151918303301948 0.049114656878205452 -0.02563219585774831
leaf_weight=40 181 161 122 174 142 25 103 29 273 32 177 31 77 69 77 29 34 89 70 25 21 39 51 257 26 115 25 81 130 92
leaf_count=40 181 161 122 174 142 25 103 29 273 32 177 31 77 69 77 29 34 89 70 25 21 39 51 257 26 115 25 81 130 92
internal_value=0 -0.0295663 -0.0157877 0.0368088 -0.023046 0.0041452 0.0479545 -0.0708667 -0.0344599 0.0539484 0.0451422 0.0123936 -0.0590799 -0.0487653 0.0232284 0.00800979 -0.0189004 0.0401043 -0.105275 0.0551355 -0.0372653 -0.0197101 -0.0689984 0.0693669 0.00455018 -0.0234481 -0.0293766 0.0159714 0.0424565 -0.0415294
internal_weight=0 1551 1163 1246 1041 317 929 388 755 795 506 134 289 342 217 286 63 114 99 332 100 60 212 289 103 413 298 223 155 273
internal_count=2797 1551 1163 1246 1041 317 929 388 755 795 506 134 289 342 217 286 63 114 99 332 100 60 212 289 103 413 298 223 155 273
cat_boundaries=0 1
cat_threshold=10495
is_linear=0
shrinkage=0.05


Tree=27
num_leaves=31
num_cat=2
split_feature=3 6 8 2 5 6 7 8 6 8 8 2 7 5 8 8 7 6 2 3 2 2 2 6 7 8 3 6 8 3
split_gain=1110.96 307.551 201.923 166.018 125.443 110.898 127.237 50.289 36.6561 34.0294 29.9075 27.3223 25.6132 23.1282 19.553 17.2452 30.3951 17.0454 16.9239 15.5595 15.4226 13.3087 14.3775 13.063 12.6997 12.3336 18.8356 11.5879 10.5175 10.2347
threshold=1.4574363231658938 0.13945195078849795 1062.1171875000002 0.0055930127855390319 0 0.21237077564001086 7.4201390743255624 1281.5078125000002 0.11737683415412904 912.07812500000011 1344.2968750000002 0.0071738378610461959 0.0424569919705391 1 508.72656250000006 649.75781250000011 3.8331679105758671 0.16368757933378222 0.0084322304464876669 1.2989625930786135 0.0042813331820070752 0.0054247006773948678 0.004944736137986184 0.14655438065528872 1.3487948775291445 700.14062500000011 0.45953896641731268 0.13431028276681903 1225.5703125000002 1.7627464532852175
decision_type=2 2 2 2 9 2 2 2 2 2 2 2 2 9 2 2 2 2 2 2 2 2 2 2 2 2 2 2 2 2
left_child=1 3 5 28 7 6 15 24 9 -6 17 12 -5 -13 -10 16 -3 -4 -8 -18 -9 22 -17 -20 -2 -7 -27 -16 -1 -22
right_child=4 2 10 11 8 25 18 20 14 -11 -12 13 -14 -15 27 21 19 -19 23 -21 29 -23 -24 -25 -26 26 -28 -29 -30 -31
leaf_value=-0.054488686295891445 -0.058489363777650787 -0.0080941095990622446 -0.032442306433446137 -0.012600224440479103 -0.031546569703146815 0.02742191669733628 0.060423703575709267 -0.13319782721144813 -0.00035809637313180672 -0.094555241211007043 -0.068220827441949114 0.011770559400399654 0.038579233246587824 -0.018570688156330069 -0.014587759214279418 0.030696188480214916 0.013525625234559323 0.0037419362555675471 0.0095258215939005228 0.051279405333303121 -0.11346514336764812 0.045399899274945775 -0.0018385929639561701 0.046102864730335376 -0.019324799750624649 0.088192909725115343 0.059305893895046959 -0.041330935508140348 -0.093048408343678432 -0.075258379624440125
leaf_weight=112 350 167 52 34 75 23 230 21 127 30 26 107 87 128 91 80 104 87 30 37 24 58 59 131 22 71 275 73 21 65
leaf_count=112 350 167 52 34 75 23 230 21 127 30 26 107 87 128 91 80 104 87 30 37 24 58 59 131 22 71 275 73 21 65
internal_value=0 0.021317 0.0330222 -0.0129128 -0.0465846 0.0398078 0.0303074 -0.0636352 -0.0236275 -0.049549 -0.0190012 0.00489434 0.0241982 -0.0050451 -0.0150863 0.0137281 0.00633859 -0.00979461 0.0517205 0.0234326 -0.0946556 0.0252813 0.0168865 0.0392873 -0.0561732 0.0628768 0.0652336 -0.0264917 -0.0605771 -0.0855613
internal_weight=0 1919 1430 489 878 1265 896 482 396 105 165 356 121 235 291 505 308 139 391 141 110 197 139 161 372 369 346 164 133 89
internal_count=2797 1919 1430 489 878 1265 896 482 396 105 165 356 121 235 291 505 308 139 391 141 110 197 139 161 372 369 346 164 133 89
cat_boundaries=0 2 3
cat_threshold=0 8372224 58720256
is_linear=0
shrinkage=0.05


Tree=28
num_leaves=31
num_cat=2
split_feature=0 0 8 0 6 8 4 0 8 6 8 5 8 8 0 7 6 7 7 0 0 8 1 8 8 0 6 6 8 8
split_gain=1395.9 195.149 155.007 80.0353 68.7264 49.8323 41.5094 38.084 34.9833 30.451 21.2057 20.9622 19.132 16.6646 15.5494 14.3808 12.7653 17.1333 13.9615 12.3972 12.1314 11.9068 11.5997 11.5895 16.2976 14.0803 11.3972 11.0728 10.9597 11.533
threshold=0.41138185560703283 0.33019772171974188 938.24218750000011 0.49777847528457647 0.21237077564001086 1215.8671875000002 0 0.51296111941337597 1666.4531250000002 0.1393408998847008 157.75781250000003 1 37.007812500000007 109.50781250000001 0.46061879396438604 0.0424569919705391 0.13990680873394015 0.0424569919705391 8.0538115501403826 0.56703478097915661 0.59652984142303478 1417.9765625000002 0.24016204476356509 814.84375000000011 713.19531250000011 0.20677431672811511 0.13383037596940997 0.13156421482563022 29.007812500000004 87.679687500000014
decision_type=2 2 2 2 2 2 9 2 2 2 2 9 2 2 2 2 2 2 2 2 2 2 2 2 2 2 2 2 2 2
left_child=1 4 3 14 6 11 9 8 -4 10 28 26 -11 -8 -2 -15 17 -13 -18 27 -5 -7 -16 24 -6 -26 -3 -9 -1 -30
right_child=2 5 7 20 23 21 13 19 -10 12 -12 16 -14 15 22 -17 18 -19 -20 -21 -22 -23 -24 -25 25 -27 -28 -29 29 -31
leaf_value=0.032146138914169807 -0.010282183788277367 -0.040798055315795154 -0.053118201657107067 -0.048695776982363548 0.04448744727609058 -0.022202896732741444 -0.028468797996728901 -0.07476737678639199 -0.12025728722413381 0.03473480990544852 0.064867813065648081 -0.03042031255518568 0.057146924608326578 -0.0061460127239115541 -0.041514285066691435 0.024729140673298389 0.017869339258691417 0.012269702579285349 0.052265557148219913 -0.12239997639105871 -0.081360554153268982 -0.069653931632637986 -0.016853972568383647 0.041746778166542459 0.087689624205231673 0.060654036557563573 -0.0014035035021971543 -0.11658051520586016 -0.020552425721708019 0.02540697543216603
leaf_weight=31 284 23 255 205 78 39 21 76 21 162 20 29 231 48 92 176 223 124 34 26 33 20 99 75 80 121 91 20 39 21
leaf_count=31 284 23 255 205 78 39 21 76 21 162 20 29 231 48 92 176 223 124 34 26 33 20 99 75 80 121 91 20 39 21
internal_value=0 0.0286742 -0.0435125 -0.0295589 0.0410414 0.00527629 0.0324611 -0.0685097 -0.0582266 0.0405717 0.0182512 0.0101814 0.0479083 0.0135666 -0.017701 0.018113 0.0152408 0.00417813 0.0224198 -0.0917732 -0.0532249 -0.038288 -0.0287322 0.0591959 0.0638865 0.0714145 -0.00859737 -0.0834784 0.00800585 -0.00446664
internal_weight=0 1686 1111 713 1103 583 749 398 276 504 111 524 393 245 475 224 410 153 257 122 238 59 191 354 279 201 114 96 91 60
internal_count=2797 1686 1111 713 1103 583 749 398 276 504 111 524 393 245 475 224 410 153 257 122 238 59 191 354 279 201 114 96 91 60
cat_boundaries=0 1 3
cat_threshold=14680068 0 2218328064
is_linear=0
shrinkage=0.05


Tree=29
num_leaves=31
num_cat=3
split_feature=0 0 8 6 4 8 4 6 0 6 3 8 0 3 8 8 3 7 6 8 8 3 6 8 3 0 0 5 8 6
split_gain=1261.51 212.577 100.044 97.525 82.0088 71.3046 36.4788 26.4971 24.7184 22.517 20.2478 19.8958 16.7201 16.5661 15.7631 15.2129 14.3065 13.3281 32.2243 16.2591 12.5232 12.0644 13.6366 11.7256 14.7124 11.6572 10.9134 10.812 16.1787 14.9999
threshold=0.36936767399311071 0.46973867714405065 1455.1328125000002 0.21237077564001086 0 1089.4140625000002 1 0.1393408998847008 0.52276253700256359 0.1200082264840603 0.94609269499778759 274.60937500000006 0.55241578817367565 1.9691337347030642 1281.5078125000002 597.35937500000011 0.88920396566391002 0.0424569919705391 0.18590988963842395 99.820312500000014 974.44531250000011 1.2845475673675539 0.14693113416433337 701.81250000000011 0.48368592560291296 0.20677431672811511 0.32235109806060797 2 878.10937500000011 0.15704053640365603
decision_type=2 2 2 2 9 2 9 2 2 2 2 2 2 2 2 2 2 2 2 2 2 2 2 2 2 2 2 9 2 2
left_child=3 2 6 4 7 8 9 11 15 -2 -9 -1 13 14 -7 -3 23 18 20 -19 -6 22 -12 -5 25 -25 -24 -11 29 -29
right_child=1 5 -4 16 17 12 -8 10 -10 27 21 -13 -14 -15 -16 -17 -18 19 -20 -21 -22 -23 26 24 -26 -27 -28 28 -30 -31
leaf_value=0.010104917988212685 -0.049151990860700608 -0.021301692775636091 -0.085147916723270808 0.029468924742104718 -0.058375550210475927 -0.06802731453230218 0.0056449687750688912 0.020410215486689205 -0.059464529827076555 -0.00014864245568516486 0.029106413986991649 0.064035449102520944 -0.11555014223821702 -0.050301020462875781 -0.10803019592295522 -0.045144354539821158 0.022828937814601005 -0.029334145169705152 0.026049933768808844 0.017588660799277327 -0.013366569263641449 0.062256946984459376 0.055182622283971389 0.091828647831030064 0.054927462079989935 0.048980467580258848 0.016047514267265799 -0.0068543398920348081 -0.033623295030663261 -0.052388960905373094
leaf_weight=118 55 113 49 32 20 53 222 84 174 104 118 20 31 46 46 164 31 20 52 240 68 102 163 57 233 22 20 189 131 20
leaf_count=118 55 113 49 32 20 53 222 84 174 104 118 20 31 46 46 164 31 20 52 240 68 102 163 57 233 22 20 189 131 20
internal_value=0 -0.0336143 -0.0160141 0.0335438 0.0255617 -0.0552286 -0.0113156 0.0366741 -0.0446953 -0.0186016 0.0427412 0.0179209 -0.0822201 -0.0750944 -0.0866145 -0.0354179 0.0553616 0.00710428 -0.00515601 0.0139792 -0.0235959 0.0473957 0.0423597 0.0582933 0.0612497 0.0798962 0.0509056 -0.0152361 -0.0192797 -0.0112117
internal_weight=0 1397 770 1400 1025 627 721 625 451 499 487 138 176 145 99 277 375 400 140 260 88 403 301 344 312 79 183 444 340 209
internal_count=2797 1397 770 1400 1025 627 721 625 451 499 487 138 176 145 99 277 375 400 140 260 88 403 301 344 312 79 183 444 340 209
cat_boundaries=0 1 2 5
cat_threshold=14712862 264779 0 2600468480 74
is_linear=0
shrinkage=0.05


Tree=30
num_leaves=31
num_cat=0
split_feature=0 0 8 0 6 8 8 2 0 6 8 2 1 8 2 6 6 1 6 0 2 0 0 6 8 8 3 7 0 8
split_gain=1142.26 158.676 126.833 64.7026 55.6878 41.7225 32.5181 32.4263 29.0757 28.6644 21.0451 17.2312 16.1215 14.9703 14.5836 13.8234 18.2353 12.8543 12.8293 12.3734 11.8404 11.1051 11.053 10.0839 9.75262 14.1631 13.8925 12.0301 13.3669 9.7313
threshold=0.41138185560703283 0.33019772171974188 938.24218750000011 0.49672217667102819 0.21237077564001086 1215.8671875000002 1455.1328125000002 0.0052291033789515504 0.50958696007728588 0.13667423278093341 11.890625000000002 0.004520589718595148 0.17852506786584857 878.10937500000011 0.0048332803416997203 0.13643527776002887 0.13128490000963214 0.23500942438840869 0.18875260651111606 0.57346281409263622 0.0048910423647612342 0.43826229870319372 0.57801657915115368 0.19842981547117236 814.84375000000011 713.19531250000011 0.4099001288414002 2.6514123678207402 0.25290359556674963 1417.9765625000002
decision_type=2 2 2 2 2 2 2 2 2 2 2 2 2 2 2 2 2 2 2 2 2 2 2 2 2 2 2 2 2 2
left_child=1 4 3 17 7 12 8 23 -4 15 -11 -8 -3 14 -14 16 -9 21 20 -10 -15 -2 -5 -1 25 26 -6 28 -27 -7
right_child=2 5 6 22 24 29 11 9 19 10 -12 -13 13 18 -16 -17 -18 -19 -20 -21 -22 -23 -24 -25 -26 27 -28 -29 -30 -31
leaf_value=-0.0047649744863587397 -0.010596457744395594 -0.032564075447788297 -0.044007926432504542 -0.042272973896578692 0.066343507468700422 -0.020479285457911781 -0.11696846374443599 -0.004555601586361189 -0.067594628883630367 -0.012026039042975754 0.040246349986364734 -0.06971790590431802 0.057988480702042579 -0.045181233063340188 0.014068794082396741 -0.021292105103256527 0.04475772259756923 -0.0072035408145545978 0.017367364306002855 -0.11026294174648466 -0.0034391897114423608 -0.032490566806638081 -0.069016835559159523 0.029593969521851379 0.037426642168313262 0.078993856380967536 0.022969885909697042 0.033701137033575738 0.049187773056963292 -0.063376994226127858
leaf_weight=81 96 22 210 198 30 39 35 37 89 20 517 43 20 23 344 27 38 225 50 21 65 146 48 29 75 119 48 27 55 20
leaf_count=81 96 22 210 198 30 39 35 37 89 20 517 43 20 23 344 27 38 225 50 21 65 146 48 29 75 119 48 27 55 20
internal_value=0 0.0259397 -0.0393604 -0.0267385 0.0370914 0.00484124 -0.061972 0.0293678 -0.054916 0.0336842 0.0382995 -0.0909201 0.00932954 0.0111655 0.016482 0.00938578 0.0204298 -0.0158066 -0.00285759 -0.0757404 -0.014349 -0.0238053 -0.0474913 0.00429329 0.0534333 0.0577362 0.039652 0.0647539 0.0695724 -0.0350209
internal_weight=0 1686 1111 713 1103 583 398 749 320 639 537 78 524 502 364 102 75 467 138 110 88 242 246 110 354 279 78 201 174 59
internal_count=2797 1686 1111 713 1103 583 398 749 320 639 537 78 524 502 364 102 75 467 138 110 88 242 246 110 354 279 78 201 174 59
is_linear=0
shrinkage=0.05


Tree=31
num_leaves=31
num_cat=2
split_feature=0 0 0 8 8 8 4 0 2 2 1 0 4 2 8 8 1 7 0 7 2 7 2 1 0 0 7 8 7 8
split_gain=1031.85 176.05 79.2522 75.9148 58.0424 34.6288 29.6652 28.1177 25.1342 24.1758 21.1767 20.9616 15.9945 25.1589 15.4742 21.145 15.4425 19.3299 16.2958 14.3091 15.7535 13.9317 11.8288 12.0773 9.77537 8.33295 8.29978 7.03296 11.4046 9.07445
threshold=0.36936767399311071 0.45419472455978399 0.25290359556674963 1089.4140625000002 1417.9765625000002 1249.0625000000002 0 0.50958696007728588 0.0084845824167132395 0.0043469714000821122 0.24016204476356509 0.55241578817367565 1 0.0085098706185817736 814.84375000000011 725.01562500000011 0.19112523645162585 0.11065177619457246 0.31357996165752416 9.4442067146301287 0.00816916022449732 2.1105117797851567 0.0057338972110301265 0.24412392824888232 0.6052282750606538 0.42107278108596807 1.0000000180025095e-35 554.78125000000011 0.083452668040990843 327.03125000000006
decision_type=2 2 2 2 2 2 9 2 2 2 2 2 9 2 2 2 2 2 2 2 2 2 2 2 2 2 2 2 2 2
left_child=2 4 8 7 6 12 25 10 14 -5 -3 26 19 16 15 -1 17 18 -14 -4 -21 -17 23 -8 -9 -2 -11 28 -24 -30
right_child=1 3 5 9 -6 -7 22 24 -10 11 -12 -13 13 -15 -16 21 -18 -19 -20 20 -22 -23 27 -25 -26 -27 -28 -29 29 -31
leaf_value=0.046813525041820958 0.028771704959041074 -0.039641607928563631 0.038412756626823752 -0.12037586544950803 -0.065482389196024643 -0.024973557088524105 -0.025200437482066101 -0.046868607750979112 0.026418408696780672 -0.05097351389774122 -0.013762079955547492 -0.1049471994737784 0.01431956136333091 -0.025737085370973078 0.028708185711601643 0.082623272888800683 0.029268419393013386 0.020008251837729901 -0.032676072628834311 0.034168689895421267 -0.025367388143204151 0.039484187502724429 -0.032344364789737894 0.015637537594884635 -0.078892246330225915 -0.0016972792882691411 -0.076636124791010563 0.011279761782381685 -0.016543821463470953 0.0050815714096683453
leaf_weight=255 66 171 242 24 46 40 191 203 143 100 147 30 35 33 68 85 215 176 39 25 20 24 44 20 27 34 46 50 85 113
leaf_count=255 66 171 242 24 46 40 191 203 143 100 147 30 35 33 68 85 215 176 39 25 20 24 44 20 27 34 46 50 85 113
internal_value=0 -0.0304001 0.0303382 -0.0469334 -0.0113446 0.0204066 -0.00721472 -0.0373105 0.0445879 -0.0733002 -0.0276784 -0.0668808 0.022719 0.0161253 0.0506023 0.0546924 0.019443 0.0109931 -0.0104484 0.0324672 0.00770821 0.0731248 -0.0120696 -0.0213295 -0.0506279 0.0167384 -0.059059 -0.00579168 -0.00931884 -0.00420206
internal_weight=0 1397 1400 748 649 825 603 548 575 200 318 176 785 498 432 364 465 250 74 287 45 109 503 211 230 100 146 292 242 198
internal_count=2797 1397 1400 748 649 825 603 548 575 200 318 176 785 498 432 364 465 250 74 287 45 109 503 211 230 100 146 292 242 198
cat_boundaries=0 1 2
cat_threshold=15729700 10485774
is_linear=0
shrinkage=0.05


Tree=32
num_leaves=31
num_cat=1
split_feature=0 0 0 2 4 6 7 2 2 6 6 2 6 0 2 6 1 3 6 2 2 2 6 7 6 2 0 3 6 3
split_gain=932.707 131.015 96.4868 57.7675 41.3321 44.5913 34.1239 26.5588 26.049 23.797 23.4843 23.2737 23.9077 23.124 20.8272 18.575 15.884 14.0328 12.9483 12.7726 11.3759 16.8774 10.4949 10.2287 10.2154 9.79477 11.1357 10.5531 13.0134 9.5447
threshold=0.41138185560703283 0.27548104524612432 0.49882194399833685 0.0047179555986076602 0 0.20014677196741107 0.11065177619457246 0.0083623076789081114 0.0047951897140592345 0.14655438065528872 0.12500361725687983 0.0081380186602473276 0.14811566472053531 0.62140721082687389 0.0055930127855390319 0.18590988963842395 0.17419429123401645 1.0612825751304629 0.15704053640365603 0.0064387484453618535 0.007214098935946823 0.0055212103761732587 0.11439722031354906 11.702829837799074 0.1246214658021927 0.0049098820891231307 0.35099956393241888 1.6118913292884829 0.13388109207153323 1.1630828976631167
decision_type=2 2 2 2 9 2 2 2 2 2 2 2 2 2 2 2 2 2 2 2 2 2 2 2 2 2 2 2 2 2
left_child=1 7 3 10 11 6 15 23 24 17 -2 -3 29 19 -5 16 -6 -9 -16 22 21 -8 -10 -1 -4 26 -18 28 -27 -13
right_child=2 4 8 14 5 -7 20 9 13 -11 -12 12 -14 -15 18 -17 25 -19 -20 -21 -22 -23 -24 -25 -26 27 -28 -29 -30 -31
leaf_value=0.048302798834343519 -0.023791154339909554 0.037766556854192647 -0.065355729400402018 -0.031703814450428233 -0.063192242419435871 0.037448885943740608 -0.0074814395446862504 0.030784009643379719 -0.088237530560720534 0.037345248189471339 -0.082073535949790055 0.008246924804354256 0.038368395047591014 -0.10016573003747248 -0.0097729265338878067 0.011814961341830592 -0.0079274184888962537 -0.011872282076407881 -0.041586995996268736 -0.03456228616405279 -0.004638288349582298 0.022286231589670746 -0.051026754510905784 0.01661390115574856 -0.1131074865659078 -0.046914500672243203 -0.046167003847658636 0.025264025887563116 -0.00015925867887942689 -0.036119650201699521
leaf_weight=448 25 195 21 217 21 90 63 31 21 161 56 22 34 22 371 51 33 51 35 125 103 195 194 27 24 22 45 21 46 27
leaf_count=448 25 195 21 217 21 90 63 31 21 161 56 22 34 22 371 51 33 51 35 125 103 195 194 27 24 22 45 21 46 27
internal_value=0 0.0234398 -0.0355671 -0.0243635 0.0114358 0.00456378 -0.000292923 0.0396234 -0.0549463 0.0261786 -0.0640851 0.0273445 0.00615334 -0.0504865 -0.0191991 -0.0149477 -0.0222078 0.00425388 -0.0125155 -0.047272 0.00940925 0.0150174 -0.0546613 0.0465015 -0.0908233 -0.017054 -0.0299887 -0.00571798 -0.015286 -0.0162
internal_weight=0 1686 1111 704 968 690 600 718 407 243 81 278 83 362 623 239 188 82 406 340 361 258 215 475 45 167 78 89 68 49
internal_count=2797 1686 1111 704 968 690 600 718 407 243 81 278 83 362 623 239 188 82 406 340 361 258 215 475 45 167 78 89 68 49
cat_boundaries=0 1
cat_threshold=14680092
is_linear=0
shrinkage=0.05


Tree=33
num_leaves=31
num_cat=3
split_feature=0 0 8 0 8 8 2 2 0 8 8 5 8 5 7 8 2 0 1 2 7 4 2 8 0 1 1 1 2 2
split_gain=844.002 145.924 70.9543 65.21 50.1917 29.0564 28.9084 20.6017 17.2775 14.1702 18.6923 14.0787 13.9772 13.2848 20.7477 16.3378 13.1244 17.1557 13.1152 16.2548 12.5734 10.2916 9.95462 9.11843 9.00217 17.4802 10.5113 8.95867 8.60835 8.24488
threshold=0.36936767399311071 0.46973867714405065 1531.2968750000002 0.25290359556674963 1089.4140625000002 1249.0625000000002 0.0057338972110301265 0.0084845824167132395 0.54800015687942516 814.84375000000011 725.01562500000011 0 14.453125000000002 1 9.2351131439209002 104.39843750000001 0.004456164315342904 0.55241578817367565 0.25263670086860662 0.0075133484788239011 2.1105117797851567 2 0.0068180903326720008 327.03125000000006 0.31357996165752416 0.17244733870029452 0.21941764652729037 0.24294076859951022 0.0049136078450828799 0.0052895813714712867
decision_type=2 2 2 2 2 2 2 2 2 2 2 9 2 9 2 2 2 2 2 2 2 9 2 2 2 2 2 2 2 2
left_child=3 2 6 7 8 12 27 9 18 10 -1 -8 -5 14 29 -16 -6 -18 22 -20 -12 -13 -3 -23 -15 -26 28 -2 -27 -14
right_child=1 4 -4 5 16 -7 11 -9 -10 -11 20 21 13 24 15 -17 17 -19 19 -21 -22 23 -24 -25 25 26 -28 -29 -30 -31
leaf_value=0.042315117128047287 -0.025358677320611839 -0.04405719289008142 -0.080467939084848839 -0.012356802929312953 -0.10160366272926331 -0.023139715641736988 -0.016977890676130342 0.023913982730046229 -0.053004707301319655 0.024857636462376619 0.076076969434233283 0.015967501792348796 0.021578941939515064 0.023950868550500725 -0.029813859429718422 0.024328691429017404 -0.054100168270466868 -0.096338705892364193 -0.011001979247833204 -0.058938654263814297 0.035094837487364812 -0.014999445551842617 -0.015022035015539992 0.0049162491351569032 -0.035538124497979877 -0.015669883955870906 0.037236915842482919 0.0020098285807762296 0.012993062613945255 0.042287985555383677
leaf_weight=255 248 164 37 31 25 40 103 143 118 68 85 101 64 179 22 38 121 30 112 21 24 91 36 156 20 31 38 34 169 193
leaf_count=255 248 164 37 31 25 40 103 143 118 68 85 101 64 179 22 38 121 30 112 21 24 91 36 156 20 31 38 34 169 193
internal_value=0 -0.027494 -0.0129118 0.027438 -0.045402 0.0184292 -0.00950169 0.0403638 -0.0365647 0.045809 0.049723 -0.00164994 0.0205473 0.0219002 0.0300037 0.00447642 -0.0680476 -0.0624919 -0.0307391 -0.0185709 0.0670534 0.00328039 -0.0388309 -0.00232691 0.0149922 0.00935776 0.0131305 -0.0220589 0.00855031 0.0371309
internal_weight=0 1397 770 1400 627 825 733 575 451 432 364 451 785 754 317 60 176 151 333 133 109 348 200 247 437 258 238 282 200 257
internal_count=2797 1397 770 1400 627 825 733 575 451 432 364 451 785 754 317 60 176 151 333 133 109 348 200 247 437 258 238 282 200 257
cat_boundaries=0 2 5 6
cat_threshold=0 208211968 46137344 1161953280 2 15729670
is_linear=0
shrinkage=0.05


Tree=34
num_leaves=31
num_cat=3
split_feature=1 5 6 8 7 3 8 3 4 4 3 3 3 8 6 6 6 3 7 1 7 8 8 6 8 3 8 3 1 1
split_gain=546.211 173.093 108.848 78.9486 53.549 52.4241 48.1024 38.483 26.9564 24.0853 20.1436 19.048 16.4079 14.1647 12.8405 13.8119 12.7259 17.0028 12.6654 11.735 11.5516 11.5151 11.4306 11.3021 17.7479 16.5283 11.2646 9.60634 12.3046 9.52658
threshold=0.20280572772026065 0 0.14167694002389911 1103.1015625000002 0.18701133877038958 1.1233302950859072 1067.3359375000002 1.0767103433609011 1 2 1.4650806188583376 1.6005422472953799 1.3115055561065676 27.953125000000004 0.1179976910352707 0.10674333944916727 0.13388109207153323 1.2989625930786135 0.0424569919705391 0.16279150545597079 10.482522010803224 1034.7734375000002 1666.4531250000002 0.21812067925930026 710.75781250000011 0.4099001288414002 1350.7578125000002 1.6223829984664919 0.25432996451854711 0.24481215327978137
decision_type=2 9 2 2 2 2 2 2 9 9 2 2 2 2 2 2 2 2 2 2 2 2 2 2 2 2 2 2 2 2
left_child=2 3 4 7 11 21 9 -2 14 23 -9 16 19 -11 15 -7 -1 -18 -8 -6 -14 -3 27 -4 25 -25 -16 29 -29 -5
right_child=1 5 6 22 12 8 18 10 -10 13 -12 -13 20 -15 26 -17 17 -19 -20 -21 -22 -23 -24 24 -26 -27 -28 28 -30 -31
leaf_value=-0.047623562391419884 0.035639090528306758 0.03311774291831189 0.036300699975868503 -0.060095609932160766 0.016097607013459008 -0.010665757848971315 -0.017994452924890953 -0.016849323882420053 0.0038912512611821611 -0.010189310028958558 -0.038392157042845314 0.021238329191692176 0.039869195601592466 0.02483035760014585 -0.010855077814207654 -0.053660444295073439 -0.033298680073646614 0.022503458391875029 0.019541585670882152 -0.014863492673770948 0.0043702383455114834 -0.0036414717578467123 -0.093333643043620726 0.057272443334971161 0.05927162349224091 0.0063556398793652262 -0.048909038340761546 -0.028843347696690926 -0.061998754475467113 -0.095323729648121774
leaf_weight=61 23 101 398 61 69 31 55 170 223 33 300 20 75 231 263 47 43 20 38 55 33 27 27 28 160 37 21 45 74 28
leaf_count=61 23 101 398 61 69 31 55 170 223 33 300 20 75 231 263 47 43 20 38 55 33 27 27 28 160 37 21 45 74 28
internal_value=0 -0.0214327 0.0227787 -0.0383511 -9.14747e-05 -0.00357043 0.0315534 -0.0275098 -0.00996238 0.0351404 -0.0306001 -0.024042 0.0147744 0.0197064 -0.0181039 -0.0365728 -0.0313453 -0.0155837 -0.00265715 0.00236486 0.0290223 0.0253638 -0.0627267 0.0407108 0.0503211 0.028289 -0.0136689 -0.0587536 -0.049461 -0.0711786
internal_weight=0 1441 1356 728 376 713 980 493 585 887 470 144 232 264 362 78 124 63 93 124 108 128 235 623 225 65 284 208 119 89
